Language model created by QuickLM on Wed Dec 16 16:49:11 EST 2015
Copyright (c) 1996-2010 Carnegie Mellon University and Alexander I. Rudnicky

The model is in standard ARPA format, designed by Doug Paul while he was at MITRE.

The code that was used to produce this language model is available in Open Source.
Please visit http://www.speech.cs.cmu.edu/tools/ for more information

The (fixed) discount mass is 0.5. The backoffs are computed using the ratio method.
This model based on a corpus of 2003 sentences and 494 words

\data\
ngram 1=494
ngram 2=2531
ngram 3=4010

\1-grams:
-1.0646 </s> -0.3010
-1.0646 <s> -0.1677
-2.1816 A -0.2796
-3.2871 ACEY -0.3007
-4.3663 ACTION -0.2619
-4.3663 AFTER -0.2992
-3.4120 AH -0.3009
-3.5881 AHEAD -0.2619
-3.6673 ALAMO -0.2576
-2.3369 ALL -0.2866
-3.5881 ALLEMANDE -0.2980
-4.0652 ALONG -0.2619
-3.2523 ALTER -0.2879
-3.4632 AN -0.2994
-1.8820 AND -0.2130
-3.2201 ANY -0.2998
-4.3663 ANYCONCEPT -0.3002
-3.5881 ANYONE -0.2608
-2.7328 ANYTHING -0.2356
-4.3663 APART -0.2619
-4.0652 ARE -0.2619
-3.7642 ARM -0.2996
-2.7752 AROUND -0.2437
-2.2944 AS -0.2906
-3.6673 AT -0.2982
-3.7642 AXLE -0.2617
-2.7228 BACK -0.2520
-4.3663 BACKTRACK -0.2619
-4.0652 BACKWARD -0.3001
-3.6673 BASED -0.3004
-4.3663 BASES -0.2619
-4.3663 BEAR -0.2619
-3.4120 BEAUS -0.2510
-4.3663 BEER -0.3010
-4.0652 BEFORE -0.2938
-3.4632 BELLES -0.2511
-3.1902 BEND -0.2539
-4.3663 BIAS -0.2990
-3.5212 BIG -0.3006
-3.5212 BINGO -0.2619
-3.0441 BLOCK -0.2858
-3.4120 BOAT -0.2612
-4.0652 BOBBIN -0.2619
-4.3663 BONE -0.3008
-3.8892 BOOMERANG -0.2619
-3.5212 BOUNCE -0.2539
-2.6673 BOX -0.2309
-3.3663 BOXES -0.2984
-2.9683 BOYS -0.2549
-3.7642 BRACE -0.2963
-3.8892 BREAKER -0.2979
-3.5212 BUSY -0.2569
-3.4632 BUT -0.2976
-2.8478 BUTTERFLY -0.2749
-2.5402 BY -0.2366
-4.3663 CALIFORNIA -0.3010
-3.8892 CALL -0.2866
-4.3663 CALLERLAB -0.3007
-4.3663 CALLS -0.3002
-3.0441 CAST -0.2908
-3.4632 CATCH -0.2937
-3.6673 CENTER -0.2531
-2.8222 CENTERS -0.2416
-3.4120 CENTRAL -0.2984
-2.5274 CHAIN -0.2376
-3.5212 CHANGE -0.2926
-2.8100 CHASE -0.2420
-4.3663 CHASER -0.3010
-3.6673 CHECKERBOARD -0.2969
-3.7642 CHECKERBOX -0.2974
-3.4120 CHECKMATE -0.2539
-4.3663 CHECKOVER -0.2619
-3.4120 CHECKPOINT -0.2564
-4.3663 CHISEL -0.2963
-3.8892 CHOICE -0.2619
-4.0652 CHUCK -0.2982
-2.7535 CIRCLE -0.2481
-2.3249 CIRCULATE -0.2548
-4.0652 CIRCULATES -0.3007
-3.7642 CLOVER -0.2953
-3.7642 CLOVERLEAF -0.2556
-4.3663 CLUTCH -0.2619
-4.0652 CODE -0.2990
-2.8348 COLUMN -0.2482
-3.4632 COLUMNS -0.2965
-4.3663 COLUMS -0.3009
-4.3663 COME -0.3010
-4.3663 COMES -0.2938
-2.4525 CONCENTRIC -0.2645
-2.6850 CONCEPT -0.2610
-4.3663 CONCEPTS -0.2619
-4.3663 CONFIDENCE -0.2619
-4.3663 CONVENTION -0.2619
-3.4632 COORDINATE -0.2555
-3.7642 CORNER -0.2618
-2.8892 COUNTER -0.2600
-3.0239 COUPLE -0.2611
-2.1568 COUPLES -0.2442
-3.7642 COURTESY -0.2997
-3.0652 CRAZY -0.2872
-3.4632 CRISS -0.2990
-2.3210 CROSS -0.2328
-3.2201 CROSSFIRE -0.2619
-3.3663 CUT -0.2938
-3.2201 CYCLE -0.2522
-4.0652 DANCERS -0.2988
-2.9349 DEAL -0.2539
-4.0652 DELETE -0.2597
-3.7642 DELIGHT -0.2618
-4.3663 DESIGNATED -0.3010
-4.3663 DETOUR -0.2619
-3.0652 DEUCEY -0.2553
-3.7642 DIAGONAL -0.3001
-2.5338 DIAMOND -0.2446
-4.0652 DIAMONDS -0.2619
-4.0652 DILEMMA -0.2619
-3.8892 DIRECTION -0.2993
-4.3663 DISBAND -0.2619
-3.2871 DISCONNECTED -0.2936
-4.3663 DISTINCT -0.3010
-4.3663 DIVE -0.2963
-3.8892 DIVIDE -0.2938
-3.0875 DIXIE -0.2987
-3.7642 DO -0.3010
-2.9349 DODGE -0.2573
-3.8892 DOSADO -0.2619
-3.4632 DOUBLE -0.2991
-4.3663 DOWN -0.2938
-4.3663 DRIFT -0.3010
-3.5881 DROP -0.2957
-4.3663 EACH -0.2990
-4.3663 EASE -0.3003
-3.5212 ECHO -0.2935
-2.4578 EIGHT -0.2162
-4.3663 EM -0.3007
-3.8892 END -0.3002
-2.9349 ENDS -0.2534
-4.3663 EVENLY -0.3001
-4.0652 EVERYBODY -0.2993
-3.4632 EXCHANGE -0.2938
-4.0652 EXPAND -0.2938
-2.8892 EXPLODE -0.2475
-3.5212 EXTEND -0.2619
-3.5881 FACE -0.2993
-3.2871 FACED -0.2966
-4.0652 FACING -0.2978
-3.0239 FAMILY -0.2619
-2.7535 FAN -0.2842
-4.0652 FANCY -0.2619
-4.3663 FASCINATE -0.2619
-3.8892 FASCINATING -0.2595
-3.5881 FERRIS -0.2992
-4.3663 FIFTHS -0.3007
-3.6673 FILE -0.2980
-4.3663 FINAL -0.3006
-3.5212 FINALLY -0.2965
-3.4632 FINISH -0.2588
-3.6673 FIRST -0.3006
-4.3663 FLARE -0.3006
-2.9039 FLIP -0.2451
-3.7642 FLOW -0.2619
-3.1622 FLUTTERWHEEL -0.2552
-3.1110 FOLD -0.2538
-2.9191 FOLLOW -0.2932
-3.2523 FORMATION -0.2609
-4.3663 FORMATIONS -0.3008
-3.5212 FORWARD -0.2531
-2.6761 FOUR -0.2527
-4.0652 FOURTHLY -0.2997
-3.7642 FRACTION -0.2979
-4.3663 FRACTIONAL -0.3010
-3.7642 FRACTIONS -0.2616
-3.6673 FULL -0.2604
-3.5881 FUNNY -0.2960
-3.3249 GALAXY -0.2594
-4.3663 GAMUT -0.2619
-3.5881 GEARS -0.2604
-3.8892 GEE -0.3010
-3.3663 GENEROUS -0.2971
-4.3663 GIRL -0.2619
-3.0441 GIRLS -0.2534
-4.3663 GNAT -0.2619
-3.2523 GO -0.2939
-3.8892 GOLLY -0.2619
-4.3663 GOOD -0.3010
-2.8611 GRAND -0.2453
-4.3663 GROUPS -0.3009
-2.6503 HALF -0.2404
-3.1622 HAND -0.2915
-3.3663 HEAD -0.2977
-2.7981 HEADS -0.2869
-4.3663 HERE -0.3010
-2.9683 HINGE -0.2456
-3.8892 HO -0.2617
-4.0652 HOCUS -0.3010
-3.5212 HOP -0.2619
-4.0652 HORSESHOE -0.2997
-3.3249 HOURGLASS -0.2594
-3.8892 HUBS -0.3000
-3.6673 IGNORE -0.2539
-4.3663 IMAGE -0.2619
-2.7328 IN -0.2564
-3.6673 INITIALLY -0.2986
-4.3663 INLET -0.2619
-4.0652 INPOINT -0.3001
-3.7642 INSIDE -0.3000
-3.0652 INTERLOCKED -0.2973
-3.5881 INTERRUPT -0.2615
-4.3663 INTO -0.2938
-3.3663 INVERT -0.2879
-4.0652 IT -0.2987
-3.3663 JAY -0.2926
-3.8892 JAYWALK -0.2606
-4.3663 JUDGE -0.2619
-3.8892 K -0.2619
-4.3663 KEEP -0.3009
-3.8892 KEY -0.2619
-3.6673 KICK -0.3003
-3.3249 LADIES -0.2970
-4.3663 LANES -0.2619
-4.3663 LAST -0.3010
-4.3663 LATCH -0.3010
-4.3663 LATE -0.2619
-4.0652 LATERAL -0.3010
-3.4120 LEAD -0.2969
-3.8892 LEADER -0.2619
-4.0652 LEADERS -0.2614
-2.2490 LEFT -0.2255
-4.3663 LICKETY -0.2997
-4.3663 LID -0.2619
-4.0652 LIFT -0.3003
-3.7642 LIKE -0.2982
-2.4742 LINE -0.2302
-3.3663 LINEAR -0.3007
-3.0652 LINES -0.2532
-3.8892 LINK -0.3007
-3.4120 LITTLE -0.2616
-3.4120 LOAD -0.2938
-3.3249 LOCK -0.2539
-4.3663 LOCKERS -0.3010
-3.5212 LOCKIT -0.2619
-3.5881 LOOP -0.2905
-4.0652 LUCK -0.2619
-3.0045 MAGIC -0.2552
-4.0652 MAKE -0.2977
-4.3663 ME -0.2619
-4.3663 MEET -0.2999
-3.5212 MEN -0.2972
-4.3663 MIDDLE -0.2619
-3.5212 MINI -0.3002
-3.1902 MIRROR -0.2873
-2.9191 MIX -0.2440
-4.3663 MODERN -0.3007
-3.8892 MORE -0.2619
-4.0652 MOTION -0.2619
-3.3249 MOTIVATE -0.2602
-4.0652 MUG -0.2997
-3.7642 N -0.2618
-4.3663 NAMED -0.3010
-4.3663 NAMING -0.3010
-2.8222 NEIGHBOR -0.2475
-4.0652 NEW -0.2619
-3.6673 NEXT -0.3006
-4.3663 NINE -0.3010
-4.3663 NOBODY -0.3009
-4.0652 NOT -0.2997
-3.4632 NOTHING -0.2556
-4.0652 NUCLEAR -0.3008
-2.8348 O -0.2751
-2.8749 OCEAN -0.2460
-3.7642 ODDLY -0.2994
-3.4632 OF -0.2968
-2.7865 OFF -0.2536
-3.6673 OFFSET -0.3005
-4.0652 ON -0.2539
-3.1622 ONCE -0.2943
-2.3451 ONE -0.2464
-4.0652 ONLY -0.3010
-4.0652 OPEN -0.3007
-3.4632 ORDER -0.2963
-4.3663 OTHERS -0.3009
-3.0045 OUT -0.2555
-4.3663 OUTFACING -0.3009
-4.3663 OUTLET -0.2619
-4.0652 OUTPOINT -0.3001
-3.3249 OUTSIDE -0.2966
-3.7642 OUTSIDES -0.2972
-4.3663 OVER -0.2990
-3.5212 OWN -0.2938
-3.7642 PAIR -0.3003
-3.3249 PARALLELOGRAM -0.2933
-3.8892 PART -0.2616
-3.1110 PARTNER -0.2524
-3.7642 PARTS -0.2619
-4.0652 PASO -0.2619
-2.4798 PASS -0.2385
-4.3663 PASSING -0.3010
-3.7642 PATCH -0.2936
-2.8749 PEEL -0.2838
-3.4632 PERCOLATE -0.2616
-4.3663 PERK -0.3007
-2.8478 PHANTOM -0.2891
-3.8892 PING -0.3010
-3.8892 PITCH -0.2969
-4.0652 PLAN -0.3009
-4.3663 PLAY -0.2619
-3.4632 PLENTY -0.2615
-4.0652 POCUS -0.2619
-3.5212 POINTS -0.2991
-4.0652 POLLY -0.3010
-3.8892 PONG -0.2990
-4.3663 POSITION -0.3010
-3.7642 PREFER -0.2539
-3.5881 PRESS -0.2985
-3.5881 PROMENADE -0.2593
-3.8892 PULL -0.2998
-4.0652 PULLEY -0.2619
-3.5881 QUADRUPLE -0.2956
-2.4025 QUARTER -0.2324
-2.5954 QUARTERS -0.2333
-3.8892 QUICK -0.2984
-3.8892 RALLY -0.2619
-3.5881 RAMBLE -0.2619
-4.0652 RATTLE -0.2556
-4.3663 REACH -0.3006
-3.2871 REACTION -0.2600
-4.0652 REACTIVATE -0.2619
-3.8892 RECOIL -0.2619
-2.7328 RECYCLE -0.2533
-3.8892 REFLECTED -0.2989
-3.8892 REGROUP -0.2605
-3.2201 RELAY -0.2539
-3.5212 RELEASE -0.2968
-3.8892 RELOCATE -0.2938
-3.2523 REMAKE -0.2539
-3.2201 REMOVED -0.2923
-3.5881 REPLACE -0.2925
-3.6673 RESET -0.2619
-4.0652 RESHAPE -0.2938
-2.4798 REVERSE -0.2393
-4.0652 REVOLVE -0.2990
-2.4218 RIGHT -0.2419
-3.5881 RIMS -0.3000
-4.0652 RING -0.2619
-4.0652 RIP -0.3003
-3.4120 RIPPLE -0.2483
-2.5030 ROLL -0.2562
-4.0652 ROLLAWAY -0.2619
-3.4632 ROTARY -0.2564
-2.7131 ROTATE -0.2483
-3.7642 RULE -0.2619
-3.1902 RUN -0.2552
-4.3663 RUNNING -0.3010
-4.0652 S -0.3002
-4.0652 SAME -0.3010
-3.5212 SASHAY -0.2614
-4.0652 SAW -0.2607
-3.2871 SCATTER -0.2588
-2.7535 SCOOT -0.2451
-3.8892 SCRAMBLE -0.2619
-3.1902 SEA -0.2614
-3.7642 SECONDLY -0.2982
-4.0652 SEE -0.3010
-3.4120 SEPARATE -0.2545
-4.3663 SET -0.2619
-4.0652 SETS -0.3002
-4.3663 SETUP -0.2619
-4.3663 SEVEN -0.2619
-4.3663 SEX -0.3008
-3.5881 SHADOW -0.2619
-4.0652 SHAKE -0.2953
-3.1902 SHAKEDOWN -0.2619
-4.0652 SHAZAM -0.2619
-3.8892 SHOOT -0.2938
-4.3663 SHOULDER -0.3001
-4.3663 SHOW -0.2619
-4.0652 SIAMESE -0.2989
-3.1110 SIDES -0.2924
-3.7642 SIDETRACK -0.2619
-4.3663 SIMPLE -0.3007
-2.7035 SINGLE -0.2924
-3.6673 SIX -0.2609
-4.0652 SKIP -0.2937
-4.0652 SLANT -0.3001
-3.1110 SLIDE -0.2567
-3.6673 SLIP -0.2535
-3.8892 SLITHER -0.2619
-4.3663 SNAP -0.2938
-3.4120 SO -0.2605
-4.3663 SOCK -0.3010
-3.5881 SOLID -0.2976
-4.0652 SOMETHING -0.3010
-2.7642 SPIN -0.2525
-2.5030 SPLIT -0.2412
-2.9683 SPREAD -0.2619
-2.5954 SQUARE -0.2472
-3.6673 SQUEEZE -0.2539
-4.0652 STABLE -0.2999
-4.3663 STACK -0.2938
-3.7642 STAGGER -0.2965
-4.0652 STAMPEDE -0.2619
-2.9513 STAR -0.2467
-3.4632 START -0.2554
-3.0239 STEP -0.2480
-3.7642 STEPS -0.3009
-4.3663 STIMULATE -0.2619
-3.5881 STINGY -0.2980
-2.7430 STRETCH -0.2794
-3.5212 STRETCHED -0.2976
-4.0652 STRIP -0.2938
-3.6673 STRUT -0.2574
-3.1902 STYLE -0.2597
-3.8892 SUBSTITUTE -0.2619
-2.8478 SWAP -0.2531
-3.5881 SWEEP -0.2982
-2.5739 SWING -0.2381
-3.1902 SWITCH -0.2859
-4.3663 T -0.3010
-2.7865 TAG -0.2446
-3.7642 TAGGING -0.3010
-3.5881 TAKE -0.2953
-3.8892 TALLY -0.3010
-2.5338 TANDEM -0.2659
-4.3663 TEA -0.3010
-3.8892 TEACUP -0.2997
-4.3663 TEAM -0.3007
-3.5881 THAR -0.2614
-1.7797 THE -0.2790
-4.0652 THIRD -0.3010
-4.0652 THIRDLY -0.2997
-3.4120 THIRDS -0.3002
-4.3663 THOSE -0.3010
-2.3795 THREE -0.2514
-4.3663 THREERD -0.3007
-1.9683 THRU -0.2379
-3.6673 TIME -0.2619
-3.8892 TIMES -0.2619
-2.3369 TO -0.2887
-2.6104 TOP -0.2556
-4.3663 TOPS -0.2619
-2.8892 TOUCH -0.2552
-3.3663 TRACK -0.2953
-2.6104 TRADE -0.2378
-3.0652 TRAIL -0.2537
-4.3663 TRAILERS -0.3009
-4.3663 TRAILING -0.3010
-2.9349 TRANSFER -0.2475
-3.7642 TRAPEZOID -0.2982
-4.0652 TRAVEL -0.2963
-2.8611 TRIANGLE -0.2513
-4.0652 TRIANGLES -0.2618
-4.3663 TRIP -0.2938
-2.7328 TRIPLE -0.2896
-4.0652 TRUCK -0.2619
-2.5030 TURN -0.2299
-4.3663 TURNING -0.2938
-4.3663 TURNS -0.2619
-4.3663 TURNSTYLE -0.2619
-4.3663 TWICE -0.2619
-4.3663 TWIRL -0.2619
-3.5881 TWIST -0.2879
-2.6673 TWO -0.2545
-3.1358 TWOSOME -0.2899
-3.7642 U -0.2997
-3.8892 UNWRAP -0.2933
-3.1110 UP -0.2539
-4.3663 VARIATIONS -0.2619
-3.4120 VEER -0.2965
-3.2523 VERTICAL -0.2559
-3.5881 VERY -0.2999
-3.0441 WALK -0.2929
-4.0652 WALLY -0.2619
-2.3369 WAVE -0.2370
-3.4120 WAVES -0.2949
-3.8892 WAY -0.2996
-3.4632 WEAVE -0.2539
-2.3706 WHEEL -0.2376
-3.8892 WHIZ -0.2619
-4.0652 WIND -0.2938
-3.1622 WINDMILL -0.2559
-3.1902 WITH -0.2882
-3.6673 WORK -0.3009
-3.3663 WORKING -0.2967
-3.6673 WRAP -0.2990
-4.0652 WRONG -0.3010
-4.0652 YOU -0.3010
-2.5881 YOUR -0.2995
-3.4120 Z -0.2967
-3.8892 ZAG -0.2619
-4.0652 ZERO -0.2619
-3.7642 ZIG -0.2555
-3.3663 ZING -0.2619
-4.0652 ZIP -0.3010
-3.2523 ZOOM -0.2556

\2-grams:
-3.1256 <s> ACEY 0.0000
-3.6027 <s> AH 0.0000
-3.1256 <s> ALAMO -0.1461
-1.6115 <s> ALL -0.0237
-2.9037 <s> ALLEMANDE 0.0000
-3.6027 <s> ALONG 0.0000
-3.1256 <s> ALTER 0.0000
-3.6027 <s> AND -0.2960
-2.5235 <s> ANY -0.0580
-3.3017 <s> ANYONE -0.2218
-2.5235 <s> ANYTHING -0.2358
-3.6027 <s> ARM -0.2430
-1.5774 <s> AS -0.0109
-3.3017 <s> BACK -0.2910
-2.9037 <s> BEAUS -0.1249
-3.6027 <s> BEER 0.0000
-2.9037 <s> BELLES -0.1383
-2.9037 <s> BEND -0.0280
-3.6027 <s> BIAS 0.0000
-2.7576 <s> BIG 0.0000
-3.6027 <s> BINGO 0.0000
-3.6027 <s> BLOCK -0.2906
-3.6027 <s> BOOMERANG 0.0000
-3.1256 <s> BOUNCE -0.0580
-2.7576 <s> BOX -0.1461
-2.4888 <s> BOYS -0.1335
-3.6027 <s> BRACE 0.0000
-3.1256 <s> BREAKER 0.0000
-2.9037 <s> BUSY -0.1091
-2.0842 <s> BUTTERFLY -0.0000
-3.6027 <s> BY -0.2912
-3.6027 <s> CALIFORNIA 0.0000
-2.9037 <s> CAST -0.0928
-2.6996 <s> CATCH 0.0000
-2.3474 <s> CENTERS -0.1280
-2.6996 <s> CENTRAL 0.0000
-2.6996 <s> CHAIN -0.2330
-2.9037 <s> CHANGE 0.0000
-2.6027 <s> CHASE -0.0772
-3.6027 <s> CHASER 0.0000
-2.9037 <s> CHECKERBOARD 0.0000
-3.0007 <s> CHECKERBOX 0.0000
-3.6027 <s> CHECKMATE -0.0458
-3.6027 <s> CHECKOVER 0.0000
-2.9037 <s> CHECKPOINT -0.1597
-3.6027 <s> CHISEL 0.0000
-3.6027 <s> CHOICE 0.0000
-3.6027 <s> CHUCK 0.0000
-2.1113 <s> CIRCLE -0.0593
-3.0007 <s> CIRCULATE -0.0155
-3.3017 <s> CLOVER 0.0000
-3.3017 <s> CLOVERLEAF 0.0000
-3.6027 <s> COLUMN -0.2814
-3.6027 <s> COLUMS 0.0000
-1.7515 <s> CONCENTRIC 0.0000
-3.1256 <s> COORDINATE 0.0000
-2.9037 <s> COUNTER -0.0142
-3.6027 <s> COUPLE -0.1891
-2.5235 <s> COUPLES -0.2776
-3.6027 <s> COURTESY 0.0000
-2.6485 <s> CRAZY -0.1614
-3.0007 <s> CRISS 0.0000
-1.9125 <s> CROSS -0.0229
-3.6027 <s> CROSSFIRE 0.0000
-2.9037 <s> CUT 0.0000
-3.6027 <s> CYCLE -0.2688
-3.6027 <s> DELETE -0.1761
-3.3017 <s> DELIGHT 0.0000
-3.6027 <s> DESIGNATED 0.0000
-3.6027 <s> DETOUR 0.0000
-3.0007 <s> DIAGONAL 0.0000
-3.3017 <s> DIAMOND -0.2609
-3.6027 <s> DILEMMA 0.0000
-3.6027 <s> DISBAND 0.0000
-3.3017 <s> DISCONNECTED -0.2632
-3.6027 <s> DIVE 0.0000
-3.1256 <s> DIVIDE 0.0000
-2.8246 <s> DIXIE 0.0000
-3.6027 <s> DO -0.1761
-2.9037 <s> DODGE -0.2588
-3.6027 <s> DOSADO 0.0000
-3.3017 <s> DOUBLE 0.0000
-3.6027 <s> DRIFT 0.0000
-2.8246 <s> DROP 0.0000
-3.6027 <s> EACH 0.0000
-3.6027 <s> EASE 0.0000
-2.7576 <s> ECHO -0.0000
-2.8246 <s> EIGHT -0.2846
-3.6027 <s> END -0.2218
-2.3017 <s> ENDS -0.0310
-3.6027 <s> EVERYBODY -0.1761
-2.9037 <s> EXCHANGE 0.0000
-3.6027 <s> EXPAND 0.0000
-2.4566 <s> EXPLODE -0.1027
-3.3017 <s> EXTEND 0.0000
-3.6027 <s> FACING -0.1761
-2.4888 <s> FAN -0.1725
-3.6027 <s> FANCY 0.0000
-3.6027 <s> FASCINATE 0.0000
-3.1256 <s> FASCINATING 0.0000
-3.0007 <s> FERRIS 0.0000
-3.6027 <s> FILE -0.2041
-2.7576 <s> FINALLY 0.0000
-2.6996 <s> FINISH 0.0000
-2.9037 <s> FIRST 0.0000
-3.6027 <s> FLARE 0.0000
-2.4888 <s> FLIP -0.0561
-3.0007 <s> FLUTTERWHEEL 0.0000
-3.6027 <s> FOLD -0.2888
-2.7576 <s> FOLLOW 0.0000
-3.6027 <s> FORWARD -0.2688
-2.9037 <s> FOUR -0.2736
-3.6027 <s> FOURTHLY -0.1761
-3.6027 <s> FRACTION -0.2430
-3.6027 <s> FRACTIONAL 0.0000
-2.8246 <s> FUNNY 0.0000
-3.3017 <s> GALAXY -0.2596
-3.6027 <s> GEE 0.0000
-2.6996 <s> GENEROUS -0.0792
-2.4266 <s> GIRLS -0.1091
-3.6027 <s> GOOD 0.0000
-2.3986 <s> GRAND -0.0512
-3.6027 <s> GROUPS 0.0000
-2.9037 <s> HALF -0.2478
-2.7576 <s> HEAD -0.1139
-2.0345 <s> HEADS 0.0000
-3.6027 <s> HERE 0.0000
-2.9037 <s> HINGE -0.0170
-3.6027 <s> HOCUS 0.0000
-3.6027 <s> HORSESHOE 0.0000
-3.6027 <s> HOURGLASS -0.2808
-3.1256 <s> HUBS 0.0000
-2.9037 <s> IGNORE 0.0000
-2.4566 <s> IN -0.1794
-2.9037 <s> INITIALLY 0.0000
-3.6027 <s> INLET 0.0000
-3.3017 <s> INPOINT 0.0000
-3.1256 <s> INSIDE -0.0969
-2.5613 <s> INTERLOCKED -0.0212
-3.6027 <s> INTERRUPT -0.2632
-3.1256 <s> INVERT 0.0000
-2.8246 <s> JAY -0.1461
-3.6027 <s> JAYWALK -0.1249
-3.6027 <s> KEEP 0.0000
-3.6027 <s> KICK 0.0000
-3.0007 <s> LADIES -0.1347
-3.6027 <s> LATCH 0.0000
-3.6027 <s> LATERAL 0.0000
-3.3017 <s> LEAD -0.0458
-1.9306 <s> LEFT -0.0949
-3.6027 <s> LICKETY 0.0000
-3.6027 <s> LIFT 0.0000
-3.1256 <s> LINE -0.2926
-3.1256 <s> LINEAR 0.0000
-3.1256 <s> LINES -0.2430
-3.6027 <s> LINK 0.0000
-3.0007 <s> LITTLE 0.0000
-3.3017 <s> LOAD 0.0000
-3.3017 <s> LOCK -0.1891
-3.6027 <s> LOCKERS 0.0000
-3.6027 <s> LOCKIT 0.0000
-3.3017 <s> LOOP -0.1761
-2.2603 <s> MAGIC -0.0185
-3.6027 <s> MAKE -0.1761
-3.6027 <s> MEN -0.2688
-3.3017 <s> MINI 0.0000
-2.4266 <s> MIRROR 0.0000
-3.3017 <s> MIX -0.0442
-3.0007 <s> MOTIVATE 0.0000
-3.6027 <s> N -0.2430
-3.6027 <s> NAMED 0.0000
-3.6027 <s> NOBODY 0.0000
-3.6027 <s> NUCLEAR 0.0000
-2.1113 <s> O -0.0126
-3.3017 <s> OCEAN -0.2795
-3.0007 <s> ODDLY 0.0000
-3.0007 <s> OFFSET 0.0000
-2.4888 <s> ONCE -0.0512
-2.5235 <s> ONE -0.0792
-3.6027 <s> OPEN 0.0000
-3.6027 <s> OUT -0.2615
-3.6027 <s> OUTFACING 0.0000
-3.6027 <s> OUTLET 0.0000
-3.3017 <s> OUTPOINT 0.0000
-2.6996 <s> OUTSIDE -0.0726
-2.7576 <s> OWN 0.0000
-3.6027 <s> PAIR 0.0000
-2.5613 <s> PARALLELOGRAM 0.0000
-3.0007 <s> PARTNER -0.1065
-2.4888 <s> PASS -0.0111
-3.6027 <s> PASSING 0.0000
-3.0007 <s> PATCH 0.0000
-2.8246 <s> PEEL 0.0000
-2.9037 <s> PERCOLATE 0.0000
-3.6027 <s> PERK 0.0000
-2.3017 <s> PHANTOM -0.0726
-3.6027 <s> PING 0.0000
-3.1256 <s> PITCH 0.0000
-3.6027 <s> PLAN 0.0000
-3.3017 <s> PLENTY -0.0969
-3.0007 <s> POINTS -0.1549
-3.6027 <s> POLLY 0.0000
-3.0007 <s> PREFER 0.0000
-3.3017 <s> PRESS -0.0669
-3.6027 <s> PROMENADE -0.2632
-3.6027 <s> PULL 0.0000
-2.8246 <s> QUADRUPLE 0.0000
-3.0007 <s> QUARTER -0.2457
-3.1256 <s> QUICK 0.0000
-3.6027 <s> RALLY 0.0000
-3.6027 <s> RAMBLE 0.0000
-3.6027 <s> REACH 0.0000
-3.6027 <s> REACTIVATE 0.0000
-3.6027 <s> RECOIL 0.0000
-2.8246 <s> RECYCLE 0.0000
-3.1256 <s> REFLECTED 0.0000
-3.6027 <s> REGROUP -0.1249
-3.1256 <s> RELAY -0.1326
-2.7576 <s> RELEASE -0.0000
-3.1256 <s> RELOCATE 0.0000
-3.0007 <s> REMAKE 0.0000
-3.6027 <s> REPLACE -0.2632
-3.6027 <s> RESET 0.0000
-3.3017 <s> RESHAPE 0.0000
-1.9125 <s> REVERSE 0.0000
-3.3017 <s> REVOLVE 0.0000
-2.4888 <s> RIGHT -0.1954
-2.8246 <s> RIMS 0.0000
-3.6027 <s> RIP 0.0000
-3.6027 <s> RIPPLE -0.2218
-3.6027 <s> ROLLAWAY 0.0000
-2.8246 <s> ROTARY 0.0000
-2.6485 <s> ROTATE -0.0189
-3.6027 <s> RUN -0.2863
-3.6027 <s> RUNNING 0.0000
-3.3017 <s> SAME 0.0000
-3.1256 <s> SCATTER -0.2430
-2.3474 <s> SCOOT -0.0207
-3.6027 <s> SCRAMBLE 0.0000
-3.0007 <s> SECONDLY 0.0000
-3.6027 <s> SEE 0.0000
-3.6027 <s> SEPARATE -0.2762
-3.6027 <s> SETS 0.0000
-3.3017 <s> SHAKE 0.0000
-3.6027 <s> SHAKEDOWN 0.0000
-3.6027 <s> SHAZAM 0.0000
-3.1256 <s> SHOOT 0.0000
-3.3017 <s> SIAMESE 0.0000
-2.3723 <s> SIDES 0.0000
-3.6027 <s> SIDETRACK 0.0000
-2.2603 <s> SINGLE 0.0000
-3.6027 <s> SIX -0.1461
-3.3017 <s> SLANT 0.0000
-3.1256 <s> SLIDE 0.0000
-3.3017 <s> SLIP -0.0792
-3.6027 <s> SLITHER 0.0000
-3.6027 <s> SNAP 0.0000
-3.6027 <s> SOCK 0.0000
-3.6027 <s> SOLID -0.2632
-3.6027 <s> SOMETHING 0.0000
-2.4566 <s> SPIN -0.0512
-2.0345 <s> SPLIT -0.0175
-2.5613 <s> SQUARE -0.0487
-3.0007 <s> SQUEEZE 0.0000
-3.3017 <s> STABLE 0.0000
-3.6027 <s> STACK 0.0000
-3.0007 <s> STAGGER 0.0000
-3.6027 <s> STAMPEDE 0.0000
-3.1256 <s> STAR -0.1648
-3.6027 <s> START -0.2730
-2.7576 <s> STEP -0.0378
-3.6027 <s> STIMULATE 0.0000
-2.9037 <s> STINGY 0.0000
-1.9899 <s> STRETCH 0.0000
-2.7576 <s> STRETCHED 0.0000
-3.3017 <s> STRIP 0.0000
-2.9037 <s> STRUT 0.0000
-3.6027 <s> SUBSTITUTE 0.0000
-3.0007 <s> SWAP -0.0130
-3.6027 <s> SWEEP 0.0000
-2.3474 <s> SWING -0.0138
-2.6996 <s> SWITCH 0.0000
-3.6027 <s> T 0.0000
-2.6996 <s> TAG -0.1526
-3.6027 <s> TAGGING -0.2430
-2.8246 <s> TAKE 0.0000
-3.3017 <s> TALLY 0.0000
-1.8246 <s> TANDEM -0.0187
-3.6027 <s> TEA 0.0000
-3.6027 <s> TEACUP 0.0000
-3.6027 <s> TEAM 0.0000
-3.6027 <s> THAR -0.2632
-3.3017 <s> THE -0.2988
-3.6027 <s> THIRDLY -0.1761
-3.6027 <s> THOSE 0.0000
-2.3017 <s> THREE -0.1136
-2.6996 <s> TOUCH -0.0669
-2.7576 <s> TRACK 0.0000
-2.4566 <s> TRADE -0.1684
-3.3017 <s> TRAIL -0.2041
-3.6027 <s> TRAILERS 0.0000
-3.6027 <s> TRAILING 0.0000
-2.4566 <s> TRANSFER -0.1127
-3.0007 <s> TRAPEZOID 0.0000
-3.6027 <s> TRAVEL 0.0000
-2.9037 <s> TRIANGLE -0.1076
-3.6027 <s> TRIP 0.0000
-1.9899 <s> TRIPLE 0.0000
-3.6027 <s> TRUCK 0.0000
-2.6027 <s> TURN -0.1323
-3.6027 <s> TURNSTYLE 0.0000
-2.8246 <s> TWIST 0.0000
-2.4266 <s> TWO -0.1875
-3.6027 <s> TWOSOME -0.2881
-3.3017 <s> U 0.0000
-3.1256 <s> UNWRAP 0.0000
-3.1256 <s> VEER 0.0000
-2.6027 <s> VERTICAL 0.0000
-2.9037 <s> VERY 0.0000
-3.1256 <s> WALK -0.0757
-2.8246 <s> WAVE -0.2866
-3.6027 <s> WEAVE -0.2730
-2.3986 <s> WHEEL -0.0943
-3.3017 <s> WIND 0.0000
-3.3017 <s> WITH -0.2218
-2.9037 <s> WRAP 0.0000
-3.3017 <s> WRONG 0.0000
-3.6027 <s> YOUR -0.2900
-2.6485 <s> Z 0.0000
-3.1256 <s> ZIG 0.0000
-3.6027 <s> ZING 0.0000
-3.3017 <s> ZIP 0.0000
-3.3017 <s> ZOOM 0.0000
-2.4857 A BRACE 0.0000
-2.4857 A COUPLE -0.1891
-2.4857 A CROSS -0.2931
-1.2070 A DIAMOND -0.1120
-2.4857 A FORMATION -0.1165
-2.1847 A FULL -0.2041
-2.4857 A GALAXY -0.0726
-1.8837 A HALF -0.2235
-2.4857 A LEFT -0.2960
-1.1055 A LINE -0.0991
-2.4857 A LINEAR -0.0414
-2.4857 A LOAD 0.0000
-2.1847 A LUCK 0.0000
-2.1847 A MOTIVATE -0.1047
-2.4857 A PASS -0.2719
-1.0544 A QUARTER -0.1468
-2.4857 A REMAKE -0.0902
-2.4857 A RIGHT -0.2936
-2.0086 A RIPPLE -0.2218
-2.4857 A ROTARY -0.2109
-2.1847 A SHADOW 0.0000
-2.4857 A SINGLE -0.2457
-2.4857 A SPLIT -0.2539
-2.4857 A SWING -0.1619
-1.7868 A TIME 0.0000
-2.4857 A U 0.0000
-0.8136 A WAVE -0.0879
-0.3010 ACEY DEUCEY 0.0000
-0.3010 ACTION </s> -0.3010
-0.3010 AFTER THREE -0.2988
-0.3010 AH SO 0.0000
-0.3010 AHEAD </s> -0.3010
-1.0000 ALAMO </s> -0.3010
-1.0000 ALAMO LEFT -0.2910
-1.0000 ALAMO RING 0.0000
-1.0000 ALAMO STYLE -0.2389
-1.0000 ALAMO SWING -0.1619
-2.3304 ALL ARM -0.0969
-2.0294 ALL AROUND -0.2840
-2.3304 ALL DIAMOND -0.2713
-0.4792 ALL EIGHT -0.0506
-2.3304 ALL FLIP -0.1609
-0.9154 ALL FOUR -0.1549
-2.0294 ALL LADIES -0.2374
-2.3304 ALL MIX -0.0580
-2.3304 ALL SWING -0.1619
-2.3304 ALL THE -0.3005
-1.0792 ALLEMANDE FAMILY 0.0000
-0.6021 ALLEMANDE LEFT -0.2629
-0.7782 ALLEMANDE THAR -0.0669
-0.3010 ALONG </s> -0.3010
-0.9379 ALTER AND -0.2989
-0.4150 ALTER THE -0.2809
-1.2041 AN ACEY 0.0000
-1.2041 AN ALAMO -0.2553
-1.2041 AN ALLEMANDE -0.2218
-0.7270 AN HOURGLASS -0.0726
-1.2041 AN INTERLOCKED -0.2430
-1.2041 AN OCEAN -0.2795
-2.7853 AND </s> -0.3010
-2.3082 AND A -0.2953
-1.8822 AND ANYTHING -0.1447
-2.7853 AND BACK -0.0969
-2.7853 AND BEAUS -0.2499
-2.7853 AND BELLES -0.2730
-2.1833 AND BOX -0.1818
-2.0864 AND CIRCLE -0.2737
-2.3082 AND CIRCULATE -0.0305
-2.7853 AND COME 0.0000
-2.4843 AND COUNTER -0.2472
-2.7853 AND COURTESY 0.0000
-2.3082 AND CROSS -0.2769
-2.7853 AND CROSSFIRE 0.0000
-2.7853 AND CUT 0.0000
-1.3540 AND DEAL 0.0000
-1.5301 AND DODGE -0.0738
-2.7853 AND DOSADO 0.0000
-2.7853 AND EVERYBODY -0.1761
-2.3082 AND EXCHANGE 0.0000
-2.7853 AND FANCY 0.0000
-2.0864 AND FLIP -0.2452
-1.7853 AND FOLD -0.0458
-2.7853 AND FOLLOW -0.1549
-1.4631 AND LEFT -0.2611
-2.3082 AND LITTLE -0.0872
-1.9402 AND MIX -0.0300
-2.1833 AND NOTHING -0.1761
-1.8822 AND ONE -0.0826
-2.7853 AND PARTNER -0.2071
-2.4843 AND PASS -0.1891
-2.4843 AND PEEL -0.1899
-2.1833 AND PLENTY -0.0512
-2.7853 AND QUARTER -0.2692
-2.7853 AND RALLY 0.0000
-2.7853 AND RAMBLE 0.0000
-2.4843 AND RATTLE 0.0000
-2.0864 AND RELAY -0.2156
-2.7853 AND REMAKE -0.0902
-2.7853 AND RIGHT -0.2430
-1.1621 AND ROLL -0.1279
-2.7853 AND RUN -0.0792
-1.8311 AND SCATTER -0.0969
-2.4843 AND SINGLE -0.2457
-2.4843 AND SLIDE 0.0000
-2.7853 AND SPIN -0.1055
-2.7853 AND SPLIT -0.2702
-1.4051 AND SPREAD 0.0000
-2.7853 AND SQUARE -0.1636
-2.7853 AND STAR -0.1871
-2.7853 AND SWAP -0.0943
-2.3082 AND SWEEP 0.0000
-2.7853 AND SWING -0.1619
-2.7853 AND TAG -0.2055
-2.1833 AND THREE -0.1436
-2.0072 AND TOUCH -0.0669
-1.8822 AND TRAIL -0.2041
-1.6714 AND TURN -0.1936
-1.9402 AND WEAVE -0.0512
-1.8311 AND WHEEL -0.2499
-2.7853 AND ZAG 0.0000
-1.1461 ANY CONCEPT -0.2919
-0.4929 ANY HAND -0.1576
-0.9700 ANY TAGGING -0.0969
-0.3010 ANYCONCEPT ANYTHING -0.1447
-0.6021 ANYONE </s> -0.3010
-1.0792 ANYONE ANYTHING -0.2856
-1.0792 ANYONE HOP 0.0000
-1.0792 ANYONE LIKE 0.0000
-0.5195 ANYTHING </s> -0.3010
-1.1563 ANYTHING AND -0.2392
-1.4574 ANYTHING BY -0.2879
-1.9345 ANYTHING CHAIN -0.1865
-1.9345 ANYTHING CONCEPT -0.0177
-1.9345 ANYTHING N -0.0969
-1.9345 ANYTHING REACTION -0.1249
-1.6335 ANYTHING THE -0.2902
-1.9345 ANYTHING THRU -0.0689
-1.9345 ANYTHING TO -0.0534
-0.3010 APART </s> -0.3010
-0.3010 ARE </s> -0.3010
-0.4260 ARM TURN -0.2920
-0.9031 ARM TURNS 0.0000
-0.4297 AROUND </s> -0.3010
-1.8921 AROUND AND -0.2700
-1.8921 AROUND BOYS -0.2923
-1.4150 AROUND ONE -0.2906
-1.4150 AROUND THE -0.2993
-1.5911 AROUND TWO -0.2923
-0.3122 AS COUPLES -0.0482
-2.3729 AS THE -0.2999
-2.0719 AS YOU 0.0000
-0.3010 AT A -0.2939
-0.4260 AXLE </s> -0.3010
-0.9031 AXLE BUT -0.2430
-0.4260 BACK </s> -0.3010
-1.6435 BACK AND -0.2700
-1.9445 BACK CENTERS -0.2820
-1.9445 BACK FAMILY 0.0000
-1.6435 BACK JAY -0.2553
-1.2455 BACK TO -0.0534
-0.3010 BACKTRACK </s> -0.3010
-0.6021 BACKWARD CHASE -0.1996
-0.6021 BACKWARD VERTICAL -0.1871
-0.3010 BASED TRIANGLE -0.1383
-0.3010 BASES </s> -0.3010
-0.3010 BEAR </s> -0.3010
-0.9542 BEAUS </s> -0.3010
-1.2553 BEAUS AND -0.3003
-0.9542 BEAUS CROSS -0.2810
-1.2553 BEAUS DODGE -0.0738
-1.2553 BEAUS HOP 0.0000
-1.2553 BEAUS TRADE -0.2218
-1.2553 BEAUS WALK -0.2906
-0.3010 BEER MUG 0.0000
-0.3010 BEFORE THE -0.2999
-1.2041 BELLES </s> -0.3010
-1.2041 BELLES AND -0.3003
-0.9031 BELLES CROSS -0.2810
-1.2041 BELLES DODGE -0.0738
-1.2041 BELLES NAMING 0.0000
-1.2041 BELLES TRADE -0.2218
-1.2041 BELLES WALK -0.2906
-1.4771 BEND </s> -0.3010
-0.3310 BEND THE -0.2779
-0.3010 BIAS CIRCULATE -0.0305
-0.3010 BIG BLOCK -0.2218
-0.3010 BINGO </s> -0.3010
-1.6232 BLOCK BINGO 0.0000
-1.6232 BLOCK BOX -0.2648
-1.6232 BLOCK CHASE -0.1996
-1.6232 BLOCK CIRCULATE -0.0305
-1.6232 BLOCK CONCEPT -0.0177
-1.6232 BLOCK COUNTER -0.1461
-1.6232 BLOCK FORMATION -0.1165
-1.6232 BLOCK IN -0.2586
-1.3222 BLOCK PARTNER -0.1427
-1.6232 BLOCK PASS -0.2438
-1.6232 BLOCK SLIDE -0.1065
-1.3222 BLOCK SPLIT -0.2301
-1.3222 BLOCK SQUARE -0.0552
-1.6232 BLOCK TOUCH -0.1139
-1.6232 BLOCK TRADE -0.2735
-1.6232 BLOCK WALK -0.1249
-1.6232 BLOCK WHEEL -0.2596
-1.6232 BLOCK ZING 0.0000
-0.3522 BOAT </s> -0.3010
-1.2553 BOAT CENTERS -0.2820
-0.3010 BOBBIN </s> -0.3010
-0.3010 BONE FORMATION -0.1165
-0.3010 BOOMERANG </s> -0.3010
-1.1461 BOUNCE </s> -0.3010
-0.3680 BOUNCE THE -0.2919
-2.0000 BOX </s> -0.3010
-2.0000 BOX BOYS -0.2742
-2.0000 BOX CHASE -0.2566
-1.0969 BOX CIRCULATE -0.0231
-2.0000 BOX CIRCULATES 0.0000
-1.5229 BOX CONCEPT -0.0177
-1.1549 BOX COUNTER -0.1461
-2.0000 BOX DIXIE -0.1526
-2.0000 BOX FLUTTERWHEEL -0.1181
-2.0000 BOX FOLLOW -0.1549
-2.0000 BOX LEFT -0.2719
-2.0000 BOX PASS -0.2104
-2.0000 BOX PEEL -0.2410
-2.0000 BOX QUARTER -0.2915
-1.2218 BOX RECYCLE -0.0478
-2.0000 BOX RIGHT -0.2430
-1.6990 BOX SCOOT -0.2133
-1.6990 BOX SPLIT -0.2638
-2.0000 BOX SQUARE -0.1636
-2.0000 BOX THE -0.3005
-1.2218 BOX TRANSFER -0.2314
-1.6990 BOX WHEEL -0.2085
-1.3010 BOXES ACEY 0.0000
-1.3010 BOXES CONCEPT -0.0177
-1.3010 BOXES IN -0.2586
-1.3010 BOXES LINK 0.0000
-1.3010 BOXES PLAN 0.0000
-1.3010 BOXES WALK -0.2798
-0.6990 BOXES WORKING -0.2041
-1.0969 BOYS </s> -0.3010
-1.6990 BOYS AH 0.0000
-1.6990 BOYS COURTESY 0.0000
-1.6990 BOYS DISCONNECTED -0.2430
-1.6990 BOYS DODGE -0.0738
-1.6990 BOYS FACE -0.2218
-1.6990 BOYS FOLD -0.0669
-1.3979 BOYS HOP 0.0000
-1.6990 BOYS IN -0.2960
-1.6990 BOYS JAYWALK -0.1249
-1.6990 BOYS KICK 0.0000
-1.6990 BOYS ONLY 0.0000
-1.6990 BOYS PRESS -0.2632
-1.6990 BOYS PROMENADE -0.1249
-1.2218 BOYS RUN -0.0792
-1.6990 BOYS SPREAD 0.0000
-1.6990 BOYS TRADE -0.2218
-1.6990 BOYS TURN -0.2797
-1.6990 BOYS WALK -0.2906
-0.3010 BRACE THRU -0.0689
-0.7782 BREAKER ANYTHING -0.1447
-0.7782 BREAKER MIX -0.0580
-0.7782 BREAKER THREE -0.2612
-0.8451 BUSY </s> -0.3010
-1.1461 BUSY ANYTHING -0.1447
-1.1461 BUSY CROSS -0.2951
-1.1461 BUSY CROSSFIRE 0.0000
-1.1461 BUSY MIX -0.0580
-1.1461 BUSY SINGLE -0.2457
-1.2041 BUT AH 0.0000
-1.2041 BUT COUNTER -0.1461
-1.2041 BUT EXPLODE -0.1950
-0.9031 BUT SKIP 0.0000
-1.2041 BUT SWING -0.1619
-0.9031 BUT TWO -0.2601
-1.8195 BUTTERFLY CHASE -0.1996
-1.8195 BUTTERFLY CHECKMATE -0.0458
-1.8195 BUTTERFLY CIRCULATE -0.0305
-1.8195 BUTTERFLY CLOVERLEAF -0.0969
-1.8195 BUTTERFLY COORDINATE -0.0969
-1.8195 BUTTERFLY CROSS -0.2706
-1.8195 BUTTERFLY DOUBLE -0.1383
-1.8195 BUTTERFLY FORMATION -0.2285
-1.8195 BUTTERFLY HORSESHOE 0.0000
-1.8195 BUTTERFLY LEFT -0.2719
-1.5185 BUTTERFLY PASS -0.2173
-1.8195 BUTTERFLY PEEL -0.2329
-1.8195 BUTTERFLY REMAKE -0.0902
-1.8195 BUTTERFLY REVERSE -0.2838
-1.8195 BUTTERFLY RIGHT -0.2834
-1.8195 BUTTERFLY SCOOT -0.2133
-1.8195 BUTTERFLY SHAKEDOWN 0.0000
-1.8195 BUTTERFLY SLIDE -0.1065
-1.8195 BUTTERFLY SPLIT -0.2539
-1.8195 BUTTERFLY SQUARE -0.1636
-1.8195 BUTTERFLY SWAP -0.0943
-1.8195 BUTTERFLY SWING -0.1619
-1.8195 BUTTERFLY TOUCH -0.1139
-1.8195 BUTTERFLY TRACK -0.1761
-1.8195 BUTTERFLY TRADE -0.2855
-1.8195 BUTTERFLY TRANSFER -0.2499
-1.8195 BUTTERFLY TURN -0.2605
-1.8195 BUTTERFLY VEER -0.1919
-1.8195 BUTTERFLY WALK -0.1249
-1.5185 BUTTERFLY WHEEL -0.2085
-1.8195 BUTTERFLY ZING 0.0000
-1.2240 BY </s> -0.3010
-2.1271 BY AND -0.2700
-1.5250 BY ANYTHING -0.1447
-2.1271 BY BOX -0.2648
-2.1271 BY CAST -0.1549
-2.1271 BY FLIP -0.1609
-1.8261 BY FRACTION -0.1761
-1.6500 BY GOLLY 0.0000
-2.1271 BY LINEAR -0.0414
-2.1271 BY MIX -0.0580
-1.5250 BY NOTHING -0.1761
-0.7847 BY ONE -0.0544
-2.1271 BY PASS -0.2104
-2.1271 BY SHAKEDOWN 0.0000
-2.1271 BY SWAP -0.0943
-1.5250 BY SWING -0.1619
-2.1271 BY SWITCH -0.1663
-1.5250 BY THREE -0.1436
-2.1271 BY TOUCH -0.2711
-2.1271 BY TRIANGLE -0.1761
-2.1271 BY TURN -0.2605
-2.1271 BY TWO -0.2833
-2.1271 BY VERTICAL -0.2478
-2.1271 BY WHEEL -0.2596
-0.3010 CALIFORNIA TWIRL 0.0000
-0.7782 CALL AND -0.2946
-0.7782 CALL CHAIN -0.1865
-0.7782 CALL THE -0.2677
-0.3010 CALLERLAB STYLE -0.2389
-0.3010 CALLS BACK -0.2756
-1.3222 CAST A -0.2982
-0.9243 CAST AND -0.2975
-1.3222 CAST BACK -0.0969
-0.5441 CAST OFF -0.2264
-1.2041 CATCH ANYTHING -0.2960
-1.2041 CATCH FOUR -0.2493
-1.2041 CATCH MIX -0.2932
-0.9031 CATCH ONE -0.2863
-1.2041 CATCH SWITCH -0.2041
-1.2041 CATCH THREE -0.2612
-1.2041 CATCH TWO -0.2253
-1.0000 CENTER </s> -0.3010
-0.6990 CENTER AND -0.2513
-1.0000 CENTER AS -0.2992
-1.0000 CENTER TEACUP 0.0000
-1.1461 CENTERS </s> -0.3010
-1.8451 CENTERS ARM -0.0969
-1.5441 CENTERS CAST -0.1549
-1.8451 CENTERS CIRCULATE -0.0305
-1.3680 CENTERS CROSS -0.2871
-1.8451 CENTERS FAN -0.2445
-1.5441 CENTERS HINGE -0.1335
-1.8451 CENTERS IN -0.2178
-1.8451 CENTERS LATERAL 0.0000
-1.8451 CENTERS QUARTER -0.2692
-1.8451 CENTERS RIGHT -0.2430
-1.2430 CENTERS RUN -0.0280
-1.8451 CENTERS SHAZAM 0.0000
-1.8451 CENTERS STEP -0.2808
-1.5441 CENTERS SWEEP 0.0000
-1.8451 CENTERS THREE -0.1436
-1.3680 CENTERS TO -0.0534
-1.8451 CENTERS TRADE -0.2218
-1.8451 CENTERS WAVE -0.0945
-1.8451 CENTERS WORK 0.0000
-1.8451 CENTERS ZOOM -0.0322
-1.2553 CENTRAL CHOICE 0.0000
-1.2553 CENTRAL CONCEPT -0.0177
-0.9542 CENTRAL COUNTER -0.2472
-1.2553 CENTRAL LOAD 0.0000
-1.2553 CENTRAL RAMBLE 0.0000
-1.2553 CENTRAL SCRAMBLE 0.0000
-1.2553 CENTRAL SPIN -0.1055
-1.2553 CENTRAL STAMPEDE 0.0000
-1.2368 CHAIN </s> -0.3010
-1.4409 CHAIN AND -0.2677
-2.1399 CHAIN DOWN 0.0000
-1.8388 CHAIN EIGHT -0.2956
-2.1399 CHAIN FAMILY 0.0000
-1.2948 CHAIN REACTION 0.0000
-1.0607 CHAIN THE -0.2388
-2.1399 CHAIN THREE -0.1436
-0.6347 CHAIN THRU -0.0615
-1.1461 CHANGE LANES 0.0000
-0.4472 CHANGE THE -0.2773
-1.1461 CHANGE YOUR -0.2974
-1.0122 CHASE </s> -0.3010
-1.5563 CHASE AND -0.2946
-1.8573 CHASE BACK -0.0969
-1.8573 CHASE CHAIN -0.1865
-0.6812 CHASE RIGHT -0.1922
-1.3802 CHASE THE -0.2665
-1.0122 CHASE YOUR -0.1357
-0.3010 CHASER S -0.1761
-1.0000 CHECKERBOARD ANYTHING -0.1447
-1.0000 CHECKERBOARD RECYCLE -0.0478
-1.0000 CHECKERBOARD SWAP -0.2523
-1.0000 CHECKERBOARD SWING -0.1619
-1.0000 CHECKERBOARD TAG -0.2196
-0.9031 CHECKERBOX ANYTHING -0.1447
-0.9031 CHECKERBOX RECYCLE -0.0478
-0.9031 CHECKERBOX SWAP -0.0943
-0.9031 CHECKERBOX TURN -0.2828
-0.3522 CHECKMATE </s> -0.3010
-1.2553 CHECKMATE THE -0.2896
-0.3010 CHECKOVER </s> -0.3010
-1.2553 CHECKPOINT </s> -0.3010
-1.2553 CHECKPOINT AH 0.0000
-1.2553 CHECKPOINT ANYTHING -0.2856
-1.2553 CHECKPOINT BOX -0.2648
-1.2553 CHECKPOINT COUNTER -0.1461
-1.2553 CHECKPOINT FOLLOW -0.2604
-1.2553 CHECKPOINT HINGE -0.2923
-1.2553 CHECKPOINT RECYCLE -0.2908
-1.2553 CHECKPOINT TAG -0.2196
-0.3010 CHISEL THRU -0.0689
-0.3010 CHOICE </s> -0.3010
-0.3010 CHUCK A -0.2982
-1.6128 CIRCLE </s> -0.3010
-0.6834 CIRCLE BY -0.1562
-1.9138 CIRCLE FAMILY 0.0000
-1.1357 CIRCLE FOUR -0.2736
-1.9138 CIRCLE LEFT -0.2665
-1.4367 CIRCLE ONE -0.0826
-1.9138 CIRCLE RIGHT -0.1922
-1.9138 CIRCLE THREE -0.1436
-0.9596 CIRCLE TO -0.0534
-0.3338 CIRCULATE </s> -0.3010
-2.3424 CIRCULATE BY -0.2978
-2.3424 CIRCULATE FAMILY 0.0000
-1.8653 CIRCULATE ONE -0.2863
-2.3424 CIRCULATE THREE -0.2612
-2.3424 CIRCULATE TWICE 0.0000
-2.3424 CIRCULATE TWO -0.2253
-0.3010 CIRCULATES WITH -0.1856
-0.3010 CLOVER AND -0.2931
-0.4260 CLOVERLEAF </s> -0.3010
-0.9031 CLOVERLEAF AND -0.2836
-0.3010 CLUTCH </s> -0.3010
-0.6021 CODE ONE -0.2990
-0.6021 CODE SIX -0.2041
-0.6564 COLUMN </s> -0.3010
-1.8325 COLUMN BOYS -0.2833
-1.3554 COLUMN CIRCULATE -0.0305
-1.8325 COLUMN COORDINATE -0.0969
-1.8325 COLUMN FILE -0.2041
-1.8325 COLUMN FORMATION -0.2285
-1.8325 COLUMN INVERT -0.0414
-1.2304 COLUMN ONE -0.0826
-1.5315 COLUMN PASS -0.2719
-1.8325 COLUMN RIGHT -0.2430
-1.8325 COLUMN SPLIT -0.2539
-1.8325 COLUMN THREE -0.1436
-1.8325 COLUMN TRANSFER -0.2499
-1.8325 COLUMN WALK -0.1249
-1.2041 COLUMNS CHECKMATE -0.0458
-1.2041 COLUMNS CIRCULATE -0.0305
-1.2041 COLUMNS CONCEPT -0.0177
-0.9031 COLUMNS LINES -0.2788
-1.2041 COLUMNS OF -0.1383
-1.2041 COLUMNS SOMETHING 0.0000
-1.2041 COLUMNS TRIPLE -0.2908
-0.3010 COLUMS OF -0.1383
-0.3010 COME INTO 0.0000
-0.3010 COMES THE -0.3005
-2.2148 CONCENTRIC AH 0.0000
-2.2148 CONCENTRIC ALTER -0.0902
-2.2148 CONCENTRIC BEND -0.0280
-1.7377 CONCENTRIC BOX -0.2095
-2.2148 CONCENTRIC CAST -0.1549
-1.9138 CONCENTRIC CHASE -0.1427
-1.9138 CONCENTRIC CONCEPT -0.0177
-2.2148 CONCENTRIC COUPLE -0.1891
-2.2148 CONCENTRIC CRISS 0.0000
-1.9138 CONCENTRIC CROSS -0.2535
-1.9138 CONCENTRIC CROSSFIRE 0.0000
-2.2148 CONCENTRIC CUT 0.0000
-1.7377 CONCENTRIC DIAMOND -0.2644
-2.2148 CONCENTRIC DIXIE -0.1526
-2.2148 CONCENTRIC DO -0.1761
-2.2148 CONCENTRIC DOUBLE -0.2109
-2.2148 CONCENTRIC EXPLODE -0.1950
-2.2148 CONCENTRIC EXTEND 0.0000
-2.2148 CONCENTRIC FAN -0.2445
-1.9138 CONCENTRIC FLIP -0.1609
-2.2148 CONCENTRIC FLUTTERWHEEL -0.1181
-1.9138 CONCENTRIC FOLLOW -0.0714
-2.2148 CONCENTRIC HALF -0.2708
-1.9138 CONCENTRIC HINGE -0.1335
-2.2148 CONCENTRIC LEAD -0.1597
-2.2148 CONCENTRIC LEFT -0.2943
-2.2148 CONCENTRIC LINEAR -0.0414
-2.2148 CONCENTRIC LOCKIT 0.0000
-2.2148 CONCENTRIC MINI -0.0580
-2.2148 CONCENTRIC MIX -0.0580
-2.2148 CONCENTRIC MOTIVATE -0.1047
-2.2148 CONCENTRIC PAIR 0.0000
-1.7377 CONCENTRIC PASS -0.1047
-1.6128 CONCENTRIC PEEL -0.0272
-1.7377 CONCENTRIC RECYCLE -0.0478
-1.6128 CONCENTRIC REVERSE -0.2596
-2.2148 CONCENTRIC RIGHT -0.2430
-2.2148 CONCENTRIC SCOOT -0.2133
-2.2148 CONCENTRIC SHAKEDOWN 0.0000
-2.2148 CONCENTRIC SLIDE -0.1065
-2.2148 CONCENTRIC SPIN -0.1055
-2.2148 CONCENTRIC SQUARE -0.1636
-1.9138 CONCENTRIC STAR -0.1871
-1.9138 CONCENTRIC STEP -0.1047
-2.2148 CONCENTRIC SWING -0.1619
-2.2148 CONCENTRIC TOUCH -0.1139
-2.2148 CONCENTRIC TRADE -0.2694
-2.2148 CONCENTRIC TRAIL -0.2430
-1.7377 CONCENTRIC TURN -0.2405
-2.2148 CONCENTRIC TWO -0.2601
-2.2148 CONCENTRIC VEER -0.1919
-2.2148 CONCENTRIC WALK -0.1249
-1.9138 CONCENTRIC WHEEL -0.2523
-2.2148 CONCENTRIC ZIG -0.1761
-2.2148 CONCENTRIC ZING 0.0000
-2.2148 CONCENTRIC ZOOM -0.0322
-0.3195 CONCEPT </s> -0.3010
-1.6812 CONCEPT ANYTHING -0.1447
-0.3010 CONCEPTS </s> -0.3010
-0.3010 CONFIDENCE </s> -0.3010
-0.3010 CONVENTION </s> -0.3010
-0.4260 COORDINATE </s> -0.3010
-1.2041 COORDINATE AND -0.2836
-1.2041 COORDINATE REPLACE -0.2632
-0.4260 CORNER </s> -0.3010
-0.9031 CORNER SEE 0.0000
-0.9331 COUNTER </s> -0.3010
-1.7782 COUNTER COORDINATE -0.0969
-1.4771 COUNTER COUPLE -0.1891
-1.7782 COUNTER MOTIVATE -0.1047
-1.7782 COUNTER PERCOLATE -0.1761
-0.5229 COUNTER ROTATE 0.0000
-1.6435 COUPLE </s> -0.3010
-0.6435 COUPLE GO -0.0902
-1.6435 COUPLE SEPARATE -0.2762
-0.6435 COUPLE UP -0.0458
-2.5105 COUPLES AH 0.0000
-2.5105 COUPLES ALL -0.1260
-2.5105 COUPLES ALTER -0.0902
-2.5105 COUPLES AND -0.2960
-2.5105 COUPLES BINGO 0.0000
-2.5105 COUPLES BOUNCE -0.0580
-2.0334 COUPLES BOX -0.2095
-2.2095 COUPLES CENTERS -0.2553
-2.0334 COUPLES CHASE -0.1427
-2.0334 COUPLES CIRCULATE -0.0305
-2.5105 COUPLES CONCEPT -0.0177
-2.5105 COUPLES COUPLE -0.1891
-2.5105 COUPLES CRISS 0.0000
-1.7324 COUPLES CROSS -0.2051
-2.5105 COUPLES CROSSFIRE 0.0000
-2.2095 COUPLES DIXIE -0.0435
-2.5105 COUPLES DOUBLE -0.2109
-2.2095 COUPLES ENDS -0.2314
-2.5105 COUPLES EXPLODE -0.1950
-2.5105 COUPLES EXTEND 0.0000
-2.2095 COUPLES FAN -0.2445
-2.5105 COUPLES FLUTTERWHEEL -0.1181
-2.0334 COUPLES FOLLOW 0.0000
-2.5105 COUPLES HALF -0.2840
-2.0334 COUPLES HINGE -0.0645
-2.5105 COUPLES LADIES -0.2596
-1.7324 COUPLES LEFT -0.2330
-2.5105 COUPLES LINEAR -0.0414
-2.2095 COUPLES LOCK -0.2139
-2.5105 COUPLES LOCKIT 0.0000
-2.5105 COUPLES MINI -0.0580
-2.0334 COUPLES MIX -0.0580
-2.2095 COUPLES ONE -0.0826
-2.2095 COUPLES PAIR 0.0000
-1.3345 COUPLES PASS -0.0273
-1.9085 COUPLES PEEL -0.0272
-1.8116 COUPLES QUARTER -0.2511
-2.2095 COUPLES RECYCLE -0.0478
-2.5105 COUPLES REMAKE -0.0902
-1.9085 COUPLES REVERSE -0.2341
-1.8116 COUPLES RIGHT -0.2228
-2.5105 COUPLES ROTATE -0.2101
-2.5105 COUPLES RULE 0.0000
-2.0334 COUPLES SCOOT -0.0593
-2.2095 COUPLES SEPARATE -0.2218
-2.5105 COUPLES SHAKEDOWN 0.0000
-2.2095 COUPLES SINGLE -0.2563
-2.0334 COUPLES SLIDE 0.0000
-2.5105 COUPLES SLIP -0.1461
-2.5105 COUPLES SLITHER 0.0000
-2.2095 COUPLES SPIN -0.1055
-2.5105 COUPLES SPLIT -0.2702
-1.7324 COUPLES SQUARE -0.0552
-2.2095 COUPLES STEP -0.1047
-2.5105 COUPLES SWAP -0.0943
-1.9085 COUPLES SWING -0.0827
-2.2095 COUPLES SWITCH -0.1663
-2.5105 COUPLES THREE -0.1436
-2.2095 COUPLES TOUCH -0.1139
-2.2095 COUPLES TRADE -0.1836
-2.2095 COUPLES TRAIL -0.2041
-2.0334 COUPLES TURN -0.1936
-2.5105 COUPLES TWO -0.2601
-1.5563 COUPLES TWOSOME -0.0918
-2.5105 COUPLES U 0.0000
-2.5105 COUPLES WALK -0.1249
-1.7324 COUPLES WHEEL -0.1746
-2.5105 COUPLES ZING 0.0000
-2.5105 COUPLES ZOOM -0.0322
-0.3010 COURTESY TURN -0.2370
-1.0000 CRAZY CIRCULATE -0.0155
-1.3010 CRAZY CONCEPT -0.0177
-1.6021 CRAZY COUNTER -0.1461
-1.6021 CRAZY FLUTTERWHEEL -0.1181
-1.6021 CRAZY FOLLOW -0.2430
-1.6021 CRAZY HINGE -0.1335
-1.6021 CRAZY LOCKIT 0.0000
-1.6021 CRAZY MIX -0.0580
-1.3010 CRAZY QUARTER -0.2692
-1.6021 CRAZY REVERSE -0.2838
-1.6021 CRAZY RIGHT -0.2430
-1.6021 CRAZY TAG -0.2715
-1.6021 CRAZY TRADE -0.2218
-1.6021 CRAZY TRIANGLE -0.1761
-1.6021 CRAZY TWO -0.2601
-0.3010 CRISS CROSS -0.2748
-1.3464 CROSS </s> -0.3010
-1.1703 CROSS AND -0.2851
-1.6474 CROSS BACK -0.0969
-2.3464 CROSS BY -0.2743
-2.3464 CROSS CAST -0.2798
-1.7443 CROSS CHAIN -0.1343
-2.3464 CROSS CHUCK 0.0000
-2.0453 CROSS CLOVER 0.0000
-1.3464 CROSS CONCENTRIC -0.2323
-2.3464 CROSS COUNTER -0.2472
-1.8692 CROSS CYCLE -0.0843
-1.8692 CROSS EXTEND 0.0000
-1.8692 CROSS FLIP -0.1287
-2.0453 CROSS FOLD -0.0669
-1.6474 CROSS INVERT -0.0414
-1.8692 CROSS KICK 0.0000
-2.3464 CROSS LOCKIT 0.0000
-2.3464 CROSS LOOP -0.1761
-2.3464 CROSS NUCLEAR 0.0000
-2.3464 CROSS OVER 0.0000
-2.0453 CROSS RAMBLE 0.0000
-2.3464 CROSS REACTIVATE 0.0000
-1.4433 CROSS ROLL -0.0762
-1.7443 CROSS RUN -0.0280
-2.0453 CROSS SWAP -0.2523
-1.7443 CROSS THE -0.2925
-1.7443 CROSS TRADE -0.2775
-1.7443 CROSS TRAIL -0.2553
-1.3921 CROSS YOUR -0.1513
-0.3010 CROSSFIRE </s> -0.3010
-0.3010 CUT THE -0.2797
-0.4472 CYCLE </s> -0.3010
-1.1461 CYCLE AND -0.2946
-1.4472 CYCLE BY -0.2978
-1.4472 CYCLE THREE -0.2988
-0.6021 DANCERS CROSS -0.2810
-0.6021 DANCERS RIPPLE -0.2762
-0.4102 DEAL </s> -0.3010
-1.4314 DEAL AND -0.2513
-1.7324 DEAL BEAUS -0.2499
-1.7324 DEAL CENTERS -0.2884
-1.7324 DEAL FAMILY 0.0000
-1.7324 DEAL WITH -0.2389
-0.6021 DELETE </s> -0.3010
-0.6021 DELETE ALL -0.2990
-0.4260 DELIGHT </s> -0.3010
-0.9031 DELIGHT DILEMMA 0.0000
-0.3010 DESIGNATED DANCERS -0.1761
-0.3010 DETOUR </s> -0.3010
-0.3468 DEUCEY </s> -0.3010
-1.6021 DEUCEY AND -0.2836
-1.6021 DEUCEY ONCE -0.2872
-0.3010 DIAGONAL BOX -0.2041
-0.4803 DIAMOND </s> -0.3010
-2.1335 DIAMOND AND -0.2836
-2.1335 DIAMOND BY -0.2978
-1.6564 DIAMOND CHAIN -0.1865
-1.1793 DIAMOND CIRCULATE -0.0305
-1.6564 DIAMOND CONCEPT -0.0177
-2.1335 DIAMOND INTERRUPT -0.2632
-2.1335 DIAMOND ONE -0.1989
-1.8325 DIAMOND STEP -0.1047
-1.8325 DIAMOND THREE -0.0851
-0.3010 DIAMONDS </s> -0.3010
-0.3010 DILEMMA </s> -0.3010
-0.4771 DIRECTION ANYTHING -0.1447
-0.7782 DIRECTION CONCEPT -0.0177
-0.3010 DISBAND </s> -0.3010
-1.3802 DISCONNECTED CHASE -0.1996
-1.3802 DISCONNECTED COLUMNS -0.2730
-1.3802 DISCONNECTED CONCEPT -0.0177
-1.3802 DISCONNECTED CROSS -0.2851
-0.9031 DISCONNECTED CROSSFIRE 0.0000
-1.3802 DISCONNECTED MIX -0.0580
-1.3802 DISCONNECTED SCOOT -0.2133
-1.3802 DISCONNECTED SWAP -0.0943
-1.3802 DISCONNECTED SWING -0.1619
-1.3802 DISCONNECTED SWITCH -0.1663
-0.3010 DISTINCT PARTS 0.0000
-0.3010 DIVE THRU -0.0689
-0.3010 DIVIDE THE -0.2767
-0.8016 DIXIE DIAMOND -0.1217
-1.5798 DIXIE GRAND -0.2802
-1.5798 DIXIE SASHAY -0.0580
-0.5384 DIXIE STYLE -0.1027
-0.6021 DO NOT 0.0000
-0.6021 DO PASO 0.0000
-0.3900 DODGE </s> -0.3010
-1.7324 DODGE ANYTHING -0.1447
-1.7324 DODGE CIRCULATE -0.0305
-1.7324 DODGE HOCUS 0.0000
-1.7324 DODGE LOAD 0.0000
-1.7324 DODGE TRADE -0.2218
-0.3010 DOSADO </s> -0.3010
-0.5051 DOUBLE PASS -0.2438
-0.7270 DOUBLE STAR -0.1871
-0.3010 DOWN THE -0.2785
-0.3010 DRIFT APART 0.0000
-0.7782 DROP IN -0.2054
-1.0792 DROP LEFT -0.2665
-1.0792 DROP OUT -0.1296
-0.7782 DROP RIGHT -0.1826
-0.3010 EACH WAVE -0.2990
-0.3010 EASE OFF -0.1278
-1.1461 ECHO ANY -0.2688
-1.1461 ECHO AS -0.0109
-1.1461 ECHO CONCENTRIC -0.2930
-1.1461 ECHO SIX -0.1461
-1.1461 ECHO SPLIT -0.2539
-1.1461 ECHO STRETCH -0.2852
-1.1461 ECHO TANDEM -0.2881
-1.9085 EIGHT </s> -0.3010
-2.2095 EIGHT ALTER -0.0902
-2.2095 EIGHT AND -0.2960
-2.2095 EIGHT BEND -0.0280
-1.9085 EIGHT BOX -0.2455
-1.5105 EIGHT BY -0.2638
-2.2095 EIGHT CHAIN -0.1865
-2.2095 EIGHT CHASE -0.2566
-1.9085 EIGHT CIRCULATE -0.0305
-2.2095 EIGHT CONCEPTS 0.0000
-2.2095 EIGHT CRISS 0.0000
-1.6075 EIGHT CROSS -0.2218
-2.2095 EIGHT CROSSFIRE 0.0000
-1.9085 EIGHT DIXIE -0.0435
-2.2095 EIGHT EXPLODE -0.1950
-2.2095 EIGHT FLUTTERWHEEL -0.1181
-1.6075 EIGHT FOLLOW 0.0000
-2.2095 EIGHT HINGE -0.2553
-1.6075 EIGHT LEFT -0.2538
-2.2095 EIGHT LOCKIT 0.0000
-2.2095 EIGHT MINI -0.0580
-2.2095 EIGHT MIX -0.0580
-1.9085 EIGHT PASS -0.2719
-1.6075 EIGHT PEEL -0.0272
-2.2095 EIGHT QUARTER -0.2692
-1.9085 EIGHT RECYCLE -0.0478
-1.6075 EIGHT REVERSE -0.2308
-2.2095 EIGHT RIGHT -0.2834
-1.7324 EIGHT SCOOT -0.0593
-2.2095 EIGHT SHAKEDOWN 0.0000
-2.2095 EIGHT SLIDE -0.2361
-2.2095 EIGHT SLIP -0.1461
-2.2095 EIGHT SLITHER 0.0000
-2.2095 EIGHT SPIN -0.1055
-2.2095 EIGHT SWAP -0.0943
-1.7324 EIGHT SWING -0.0827
-2.2095 EIGHT SWITCH -0.1663
-2.2095 EIGHT TAG -0.2196
-2.2095 EIGHT THREE -0.1436
-1.9085 EIGHT TRAIL -0.2041
-1.9085 EIGHT TURN -0.2159
-2.2095 EIGHT VEER -0.1919
-2.2095 EIGHT VERTICAL -0.1871
-2.2095 EIGHT WALK -0.1249
-1.6075 EIGHT WHEEL -0.1746
-2.2095 EIGHT ZING 0.0000
-2.2095 EIGHT ZOOM -0.0322
-0.3010 EM UP -0.0458
-0.7782 END GIRLS -0.2906
-0.7782 END LIKE 0.0000
-0.7782 END LINES -0.2788
-1.7324 ENDS </s> -0.3010
-1.7324 ENDS BEND -0.2863
-1.7324 ENDS CIRCULATE -0.0305
-1.0334 ENDS CROSS -0.2831
-1.2553 ENDS DISCONNECTED -0.2430
-1.2553 ENDS FOLD -0.0458
-1.7324 ENDS PEEL -0.2329
-1.7324 ENDS PRESS -0.1249
-1.7324 ENDS REGROUP -0.2218
-1.1303 ENDS RIPPLE -0.1597
-1.7324 ENDS RUN -0.0792
-1.7324 ENDS SQUEEZE -0.2041
-1.4314 ENDS START -0.2109
-1.7324 ENDS TRADE -0.2218
-1.7324 ENDS ZOOM -0.0322
-0.3010 EVENLY CONCEPT -0.0177
-0.6021 EVERYBODY HOP 0.0000
-0.6021 EVERYBODY RIGHT -0.2430
-0.3010 EXCHANGE THE -0.2815
-0.3010 EXPAND THE -0.2896
-0.8751 EXPLODE </s> -0.3010
-0.8239 EXPLODE AND -0.2561
-0.6642 EXPLODE THE -0.2044
-0.3010 EXTEND </s> -0.3010
-0.4771 FACE GRAND -0.2430
-0.7782 FACE YOUR -0.2825
-1.0792 FACED ALTER 0.0000
-1.0792 FACED CHANGE -0.1091
-1.3802 FACED CONCEPT -0.0177
-1.3802 FACED DELIGHT -0.0969
-1.3802 FACED PEEL -0.2868
-0.9031 FACED RELAY -0.1326
-1.3802 FACED REVERSE -0.2867
-1.3802 FACED SPIN -0.1055
-0.6021 FACING COUPLES -0.2997
-0.6021 FACING START -0.2730
-0.3010 FAMILY </s> -0.3010
-1.6128 FAN ALTER 0.0000
-1.3118 FAN CHAIN -0.1105
-1.9138 FAN CONCEPT -0.0177
-1.9138 FAN ONE -0.2118
-1.4367 FAN RELAY -0.1326
-0.9138 FAN THE -0.2677
-0.6128 FAN THRU -0.0689
-0.3010 FANCY </s> -0.3010
-0.3010 FASCINATE </s> -0.3010
-0.7782 FASCINATING </s> -0.3010
-0.7782 FASCINATING RECYCLE -0.0478
-0.7782 FASCINATING TURN -0.2605
-0.3010 FERRIS WHEEL -0.1919
-0.3010 FIFTHS WITH -0.2863
-1.0000 FILE PROMENADE -0.1249
-1.0000 FILE RECOIL 0.0000
-1.0000 FILE RECYCLE -0.0478
-0.6990 FILE TO -0.0534
-0.3010 FINAL CAST -0.1549
-0.5441 FINALLY AS -0.0109
-1.1461 FINALLY CONCEPT -0.0177
-1.1461 FINALLY STINGY -0.2218
-1.1461 FINALLY TANDEM -0.2881
-1.2041 FINISH </s> -0.3010
-0.3590 FINISH A -0.2895
-0.3010 FIRST COUPLE -0.1891
-0.3010 FLARE OUT -0.2717
-1.1614 FLIP </s> -0.3010
-1.2863 FLIP AND -0.2631
-1.2863 FLIP BACK -0.0889
-1.7634 FLIP REACTION -0.1249
-0.5593 FLIP THE -0.2189
-1.4624 FLIP YOUR -0.1461
-0.3010 FLOW </s> -0.3010
-0.4638 FLUTTERWHEEL </s> -0.3010
-0.9031 FLUTTERWHEEL AND -0.2677
-1.5051 FLUTTERWHEEL FAMILY 0.0000
-0.3802 FOLD </s> -0.3010
-1.5563 FOLD AND -0.2700
-1.5563 FOLD BY -0.2231
-1.5563 FOLD FAMILY 0.0000
-0.9031 FOLLOW THRU -0.0689
-1.0492 FOLLOW TO -0.0534
-0.5441 FOLLOW YOUR -0.1357
-0.4607 FORMATION </s> -0.3010
-0.8129 FORMATION CONCEPT -0.0177
-0.3010 FORMATIONS WORKING -0.2788
-0.6690 FORWARD </s> -0.3010
-1.1461 FORWARD AND -0.3003
-1.1461 FORWARD CIRCULATE -0.0305
-1.1461 FORWARD LINK 0.0000
-1.1461 FORWARD LOAD 0.0000
-0.9498 FOUR </s> -0.3010
-1.9912 FOUR BOYS -0.2923
-0.5933 FOUR COUPLES -0.2186
-1.9912 FOUR GIRLS -0.2906
-1.5141 FOUR LADIES -0.1627
-1.5141 FOUR LEFT -0.2927
-1.5141 FOUR RIGHT -0.2936
-1.9912 FOUR STEPS 0.0000
-1.9912 FOUR WORK 0.0000
-0.6021 FOURTHLY ANYCONCEPT 0.0000
-0.6021 FOURTHLY TANDEM -0.2881
-0.9031 FRACTION ANYTHING -0.1447
-0.9031 FRACTION BY -0.2945
-0.9031 FRACTION CAST -0.2460
-0.9031 FRACTION TAG -0.2055
-0.3010 FRACTIONAL TOPS 0.0000
-0.6021 FRACTIONS </s> -0.3010
-0.9031 FRACTIONS INTERRUPT -0.2632
-0.9031 FRACTIONS REPLACE -0.1761
-0.5229 FULL </s> -0.3010
-0.6990 FULL TURN -0.2405
-1.0792 FUNNY CONCEPT -0.0177
-1.0792 FUNNY DIAMOND -0.2713
-1.0792 FUNNY SLIDE -0.1065
-1.0792 FUNNY SPLIT -0.2539
-0.7782 FUNNY SQUARE -0.1636
-0.3882 GALAXY </s> -0.3010
-1.3424 GALAXY CIRCULATE -0.0305
-1.3424 GALAXY FORMATION -0.1165
-0.3010 GAMUT </s> -0.3010
-0.3802 GEARS </s> -0.3010
-1.0792 GEARS TURN -0.2766
-0.3010 GEE WHIZ 0.0000
-1.3010 GENEROUS ANYTHING -0.1447
-1.3010 GENEROUS CRAZY -0.2900
-1.3010 GENEROUS DIXIE -0.1526
-1.3010 GENEROUS LOCKIT 0.0000
-1.3010 GENEROUS MIX -0.0580
-1.3010 GENEROUS RESET 0.0000
-1.3010 GENEROUS SCOOT -0.2133
-1.3010 GENEROUS SETS 0.0000
-1.3010 GENEROUS SIX -0.1461
-1.3010 GENEROUS SPIN -0.1055
-0.3010 GIRL </s> -0.3010
-1.6232 GIRLS </s> -0.3010
-1.6232 GIRLS BACKTRACK 0.0000
-0.9243 GIRLS DISCONNECTED -0.1513
-1.6232 GIRLS DODGE -0.0738
-1.6232 GIRLS EXPLODE -0.1950
-1.6232 GIRLS FACE -0.2218
-1.6232 GIRLS FOLD -0.0669
-1.6232 GIRLS ONLY 0.0000
-1.6232 GIRLS PRESS -0.1249
-1.6232 GIRLS PROMENADE -0.1249
-1.6232 GIRLS RIGHT -0.2986
-1.6232 GIRLS RUN -0.0792
-1.6232 GIRLS SCOOT -0.1796
-1.6232 GIRLS START -0.2730
-1.6232 GIRLS TRADE -0.2218
-1.6232 GIRLS TURN -0.2797
-1.6232 GIRLS WALK -0.2906
-0.3010 GNAT </s> -0.3010
-1.4150 GO AROUND -0.2840
-1.1139 GO AS -0.2973
-0.6368 GO LEFT -0.2556
-0.8129 GO RIGHT -0.1826
-0.3010 GOLLY </s> -0.3010
-0.3010 GOOD SHOW 0.0000
-1.3291 GRAND </s> -0.3010
-1.5051 GRAND CHAIN -0.2947
-1.5051 GRAND CROSS -0.2831
-1.8062 GRAND FAMILY 0.0000
-1.3291 GRAND FOLLOW -0.1549
-1.8062 GRAND LEFT -0.2910
-1.8062 GRAND MIX -0.0580
-1.3291 GRAND QUARTER -0.2692
-1.8062 GRAND REMAKE -0.0902
-1.5051 GRAND SINGLE -0.2817
-1.5051 GRAND SPIN -0.2730
-1.0280 GRAND SQUARE -0.2745
-1.5051 GRAND SWING -0.1619
-1.3291 GRAND THREE -0.1436
-0.3010 GROUPS OF -0.2730
-0.7866 HALF </s> -0.3010
-1.2389 HALF AND -0.2383
-2.0170 HALF BY -0.2231
-1.7160 HALF CAST -0.2460
-1.5399 HALF CRAZY -0.2553
-2.0170 HALF PRESS -0.1249
-1.7160 HALF REVERSE -0.2838
-2.0170 HALF S -0.1761
-1.4150 HALF SASHAY 0.0000
-1.1719 HALF TAG -0.1015
-2.0170 HALF THE -0.2677
-1.1719 HALF THREE -0.1436
-1.5051 HAND CONCEPT -0.0177
-1.2041 HAND GALAXY -0.0726
-1.0280 HAND GRAND -0.2430
-1.5051 HAND QUARTER -0.2692
-1.5051 HAND REMAKE -0.0902
-1.0280 HAND STAR -0.2382
-1.2041 HAND SWING -0.1319
-1.5051 HAND THREE -0.1436
-1.5051 HAND WAVE -0.0945
-1.5051 HAND WITH -0.2041
-0.5229 HEAD COUPLES -0.2691
-1.3010 HEAD LADIES -0.1891
-0.8239 HEAD MEN -0.1963
-1.8692 HEADS FACE -0.1249
-1.8692 HEADS FAN -0.2445
-1.3921 HEADS LEAD -0.0458
-1.1703 HEADS LEFT -0.2445
-1.0911 HEADS PASS -0.0773
-1.8692 HEADS PROMENADE -0.2632
-1.3921 HEADS REVERSE -0.2565
-1.8692 HEADS ROTATE -0.1729
-1.5682 HEADS SINGLE -0.2181
-1.5682 HEADS SPIN -0.1055
-1.5682 HEADS SPLIT -0.2370
-1.3921 HEADS SQUARE -0.1636
-1.3921 HEADS STAR -0.1871
-1.8692 HEADS START -0.2430
-1.3921 HEADS WHEEL -0.1975
-0.3010 HERE COMES 0.0000
-0.4949 HINGE </s> -0.3010
-1.3979 HINGE AND -0.2513
-1.6990 HINGE BY -0.2978
-1.6990 HINGE FAMILY 0.0000
-1.0000 HINGE THE -0.2976
-0.4771 HO </s> -0.3010
-0.7782 HO BUT -0.2730
-0.3010 HOCUS POCUS 0.0000
-0.3010 HOP </s> -0.3010
-0.3010 HORSESHOE TURN -0.2405
-0.3882 HOURGLASS </s> -0.3010
-1.3424 HOURGLASS CIRCULATE -0.0305
-1.3424 HOURGLASS GALAXY -0.0726
-0.3010 HUBS TRADE -0.2079
-1.0000 IGNORE </s> -0.3010
-0.3979 IGNORE THE -0.2982
-0.3010 IMAGE </s> -0.3010
-0.7584 IN </s> -0.3010
-1.9345 IN LOOP -0.2632
-1.9345 IN MEN -0.2341
-1.6335 IN MOTION 0.0000
-1.6335 IN OUT -0.1154
-1.0314 IN ROLL -0.2638
-1.9345 IN THREE -0.2988
-0.8206 IN YOUR -0.2512
-1.0000 INITIALLY ANY -0.2688
-0.3979 INITIALLY AS -0.0109
-0.3010 INLET </s> -0.3010
-0.6021 INPOINT INTERLOCKED -0.2304
-0.6021 INPOINT TRIANGLE -0.1761
-0.9031 INSIDE INTERLOCKED -0.2304
-0.6021 INSIDE TRIANGLE -0.1669
-0.9031 INSIDE TRIANGLES -0.1761
-1.6021 INTERLOCKED COUNTER -0.2472
-0.9031 INTERLOCKED DIAMOND -0.0651
-1.6021 INTERLOCKED DIAMONDS 0.0000
-1.6021 INTERLOCKED LITTLE -0.1597
-1.6021 INTERLOCKED PLENTY -0.1383
-1.6021 INTERLOCKED RALLY 0.0000
-1.6021 INTERLOCKED RAMBLE 0.0000
-1.1249 INTERLOCKED SCOOT -0.0593
-0.8239 INTERLOCKED TRIANGLE -0.1481
-1.0792 INTERRUPT </s> -0.3010
-1.0792 INTERRUPT AFTER 0.0000
-0.7782 INTERRUPT BEFORE 0.0000
-1.0792 INTERRUPT ON -0.1761
-1.0792 INTERRUPT WITH -0.2863
-0.3010 INTO THE -0.3005
-1.3010 INVERT AND -0.2946
-0.3468 INVERT THE -0.2896
-0.6021 IT ONCE -0.2872
-0.6021 IT TO -0.2990
-1.3010 JAY CHASE -0.1996
-1.3010 JAY CONCEPT -0.0177
-1.3010 JAY LEFT -0.2719
-1.0000 JAY PARTNER -0.2499
-1.3010 JAY PASS -0.2104
-1.3010 JAY SHAKEDOWN 0.0000
-1.3010 JAY SQUARE -0.1636
-1.3010 JAY SWAP -0.0943
-1.3010 JAY TOUCH -0.1139
-0.4771 JAYWALK </s> -0.3010
-0.7782 JAYWALK SWING -0.2975
-0.3010 JUDGE </s> -0.3010
-0.3010 K </s> -0.3010
-0.3010 KEEP BUSY -0.2341
-0.3010 KEY </s> -0.3010
-0.3010 KICK OFF -0.1278
-1.0414 LADIES CENTER -0.2041
-0.6435 LADIES CHAIN -0.2684
-1.3424 LADIES IN -0.2960
-1.3424 LADIES MAKE -0.1761
-1.3424 LADIES RIGHT -0.2986
-1.3424 LADIES START -0.2730
-0.3010 LANES </s> -0.3010
-0.3010 LAST PART -0.1249
-0.3010 LATCH ON -0.1761
-0.3010 LATE </s> -0.3010
-0.3010 LATERAL SUBSTITUTE 0.0000
-1.2553 LEAD END -0.2218
-0.7782 LEAD LEFT -0.2665
-0.5563 LEAD RIGHT -0.1162
-0.3010 LEADER </s> -0.3010
-0.6021 LEADERS </s> -0.3010
-0.6021 LEADERS STEP -0.1047
-1.1173 LEFT </s> -0.3010
-2.4183 LEFT ALTER -0.0902
-2.4183 LEFT ARM -0.0969
-2.4183 LEFT CHASE -0.2566
-2.4183 LEFT DOSADO 0.0000
-2.4183 LEFT DOUBLE -0.1383
-2.1173 LEFT FAN -0.2445
-2.4183 LEFT GEE 0.0000
-1.8162 LEFT GRAND -0.2272
-1.9412 LEFT HAND -0.2109
-2.4183 LEFT JAY -0.2553
-2.4183 LEFT LITTLE -0.1597
-2.4183 LEFT LOOP -0.2632
-2.1173 LEFT NEXT 0.0000
-2.1173 LEFT ONE -0.0826
-2.1173 LEFT PASS -0.2719
-2.4183 LEFT PLENTY -0.1383
-2.4183 LEFT PULL 0.0000
-2.4183 LEFT QUARTER -0.2692
-2.4183 LEFT REGROUP -0.1249
-2.4183 LEFT REMAKE -0.0902
-1.8162 LEFT RIGHT -0.1826
-1.8162 LEFT ROLL -0.2605
-2.4183 LEFT SCOOT -0.1796
-1.8162 LEFT SHAKEDOWN 0.0000
-2.4183 LEFT SHOULDER 0.0000
-2.4183 LEFT SINGLE -0.2817
-1.6402 LEFT SPIN -0.1055
-2.4183 LEFT SPLIT -0.2702
-1.5732 LEFT SQUARE -0.0552
-1.6402 LEFT SWING -0.0827
-1.9412 LEFT THREE -0.1436
-1.1395 LEFT THRU -0.0569
-2.1173 LEFT TO -0.2866
-2.4183 LEFT TOUCH -0.1139
-2.4183 LEFT TRACK -0.1761
-2.4183 LEFT TRADE -0.2735
-1.9412 LEFT TURN -0.2405
-1.1879 LEFT WHEEL -0.1474
-0.3010 LICKETY SPLIT -0.2980
-0.3010 LID </s> -0.3010
-0.3010 LIFT OFF -0.1278
-0.3010 LIKE A -0.2953
-0.4942 LINE </s> -0.3010
-1.5911 LINE AND -0.2513
-2.1931 LINE BEND -0.0280
-1.7160 LINE BY -0.2743
-2.1931 LINE CALLERLAB 0.0000
-1.8921 LINE CHAIN -0.1865
-2.1931 LINE CROSSFIRE 0.0000
-2.1931 LINE MODERN 0.0000
-1.8921 LINE OF -0.2430
-2.1931 LINE PASS -0.2438
-2.1931 LINE RIGHT -0.2430
-2.1931 LINE SIMPLE 0.0000
-2.1931 LINE STEP -0.1047
-2.1931 LINE TAG -0.2196
-2.1931 LINE THE -0.2919
-2.1931 LINE TO -0.2990
-1.8921 LINE TURN -0.2605
-1.8921 LINE WAVE -0.2949
-2.1931 LINE WHEEL -0.2523
-2.1931 LINE WITH -0.2389
-1.3010 LINEAR ACTION 0.0000
-0.3468 LINEAR CYCLE -0.0843
-1.6021 LINES </s> -0.3010
-1.6021 LINES ACEY 0.0000
-1.6021 LINES ANYTHING -0.2960
-1.6021 LINES BEND -0.0280
-1.6021 LINES CHASE -0.1996
-1.6021 LINES COLUMNS -0.2730
-1.6021 LINES COUPLES -0.2970
-1.6021 LINES LOAD 0.0000
-1.3010 LINES OF -0.1383
-1.3010 LINES PASS -0.2104
-1.6021 LINES SWAP -0.0943
-1.3010 LINES WAVES -0.2499
-0.9031 LINES WORKING -0.1761
-0.3010 LINK UP -0.0458
-0.5563 LITTLE </s> -0.3010
-0.9542 LITTLE MORE 0.0000
-1.2553 LITTLE OUTSIDES -0.2430
-1.2553 LITTLE POINTS -0.2341
-0.3010 LOAD THE -0.2959
-0.5643 LOCK </s> -0.3010
-1.3424 LOCK EM 0.0000
-0.7404 LOCK THE -0.2988
-0.3010 LOCKERS CHOICE 0.0000
-0.3010 LOCKIT </s> -0.3010
-0.6021 LOOP AND -0.2939
-1.0792 LOOP ONE -0.2927
-1.0792 LOOP THREE -0.2612
-1.0792 LOOP TWO -0.2253
-0.3010 LUCK </s> -0.3010
-1.6628 MAGIC </s> -0.3010
-0.6214 MAGIC COLUMN -0.2167
-1.6628 MAGIC DIAMOND -0.2913
-1.6628 MAGIC EXPAND 0.0000
-1.1856 MAGIC LINE -0.2897
-1.3617 MAGIC O -0.2747
-1.0607 MAGIC WAVE -0.2887
-0.6021 MAKE A -0.2996
-0.6021 MAKE MAGIC -0.2915
-0.3010 ME </s> -0.3010
-0.3010 MEET YOUR -0.2825
-1.1461 MEN EXPLODE -0.1950
-1.1461 MEN IN -0.2586
-1.1461 MEN MOTIVATE -0.1047
-0.8451 MEN SASHAY -0.0580
-1.1461 MEN START -0.2730
-1.1461 MEN WAVE -0.2970
-0.3010 MIDDLE </s> -0.3010
-1.1461 MINI BUSY -0.2341
-0.3680 MINI CHASE -0.2566
-1.4771 MIRROR ALL -0.2448
-1.4771 MIRROR BRACE 0.0000
-1.4771 MIRROR CONCEPT -0.0177
-1.4771 MIRROR CROSS -0.2971
-1.4771 MIRROR LIFT 0.0000
-1.1761 MIRROR PASS -0.2104
-1.4771 MIRROR RECYCLE -0.0478
-1.4771 MIRROR RIGHT -0.2430
-1.4771 MIRROR RIP 0.0000
-1.4771 MIRROR SINGLE -0.2457
-1.4771 MIRROR SLIDE -0.1065
-1.4771 MIRROR SWAP -0.2523
-1.4771 MIRROR TRIPLE -0.2908
-1.4771 MIRROR WHEEL -0.2523
-0.3680 MIX </s> -0.3010
-1.7482 MIX AND -0.2975
-1.7482 MIX BY -0.2978
-1.7482 MIX THE -0.2919
-1.7482 MIX THREE -0.2612
-0.3010 MODERN STYLE -0.2389
-0.3010 MORE </s> -0.3010
-0.3010 MOTION </s> -0.3010
-0.4393 MOTIVATE </s> -0.3010
-1.3424 MOTIVATE DO -0.1761
-1.3424 MOTIVATE REPLACE -0.2632
-1.3424 MOTIVATE TURN -0.2766
-0.3010 MUG CHAIN -0.2751
-0.4260 N </s> -0.3010
-0.9031 N STEPS 0.0000
-0.3010 NAMED DANCERS -0.1761
-0.3010 NAMING CONVENTION 0.0000
-0.3827 NEIGHBOR </s> -0.3010
-1.1461 NEIGHBOR AND -0.2836
-1.8451 NEIGHBOR THE -0.2919
-0.3010 NEW </s> -0.3010
-0.3010 NEXT COUPLE -0.1891
-0.3010 NINE TIMES 0.0000
-0.3010 NOBODY HOP 0.0000
-0.3010 NOT TURN -0.2766
-0.6021 NOTHING </s> -0.3010
-0.6021 NOTHING AND -0.2895
-0.3010 NUCLEAR REACTION -0.1249
-1.8325 O CHASE -0.1996
-1.5315 O CIRCULATE -0.0305
-1.8325 O CLOVERLEAF -0.0969
-1.8325 O COORDINATE -0.0969
-1.8325 O CROSS -0.2706
-1.8325 O DOUBLE -0.1383
-1.8325 O FORMATION -0.2285
-1.8325 O LATE 0.0000
-1.8325 O LEFT -0.2719
-1.5315 O PASS -0.2173
-1.8325 O PEEL -0.2329
-1.8325 O REVERSE -0.2838
-1.8325 O RIGHT -0.2834
-1.8325 O SCOOT -0.2133
-1.8325 O SHAKEDOWN 0.0000
-1.8325 O SLIDE -0.1065
-1.8325 O SPLIT -0.2539
-1.8325 O SQUARE -0.1636
-1.8325 O SWAP -0.0943
-1.8325 O SWING -0.1619
-1.8325 O TOUCH -0.1139
-1.8325 O TRACK -0.1761
-1.8325 O TRADE -0.2855
-1.8325 O TRANSFER -0.2499
-1.8325 O TURN -0.2605
-1.8325 O VEER -0.1919
-1.5315 O WALK -0.1249
-1.5315 O WHEEL -0.2085
-1.8325 O ZING 0.0000
-1.8325 O ZOOM -0.0322
-0.4307 OCEAN </s> -0.3010
-1.4914 OCEAN AND -0.2829
-1.7924 OCEAN RIGHT -0.1922
-1.7924 OCEAN SEA -0.2863
-1.7924 OCEAN THRU -0.0689
-1.3153 OCEAN WAVE -0.0879
-0.9031 ODDLY EVENLY 0.0000
-0.9031 ODDLY ONCE -0.0512
-0.6021 ODDLY TANDEM -0.2848
-0.9031 OF EIGHT -0.2956
-1.2041 OF FOUR -0.2966
-0.5051 OF THREE -0.2897
-0.4829 OFF </s> -0.3010
-1.8808 OFF AND -0.2700
-0.8016 OFF THREE -0.1436
-0.5229 OFFSET LINES -0.2553
-0.6990 OFFSET WAVES -0.2499
-0.6021 ON </s> -0.3010
-0.6021 ON THE -0.3005
-1.5051 ONCE AND -0.2989
-1.5051 ONCE AROUND -0.2954
-0.3590 ONCE REMOVED -0.0000
-1.8451 ONE </s> -0.3010
-1.8451 ONE AND -0.2982
-2.3222 ONE CHECKMATE -0.2762
-0.7312 ONE HALF -0.0399
-2.3222 ONE INTERLOCKED -0.2304
-2.3222 ONE OPEN 0.0000
-0.6788 ONE QUARTER -0.0931
-2.3222 ONE SIX -0.2041
-2.3222 ONE STEP -0.2910
-2.0212 ONE TO -0.0534
-2.0212 ONE TRANSFER -0.2499
-2.0212 ONE TRIANGLE -0.1481
-1.7202 ONE TWO -0.2788
-2.3222 ONE WALK -0.1249
-0.3010 ONLY PING 0.0000
-0.3010 OPEN UP -0.2762
-1.2041 ORDER CONCEPT -0.0177
-1.2041 ORDER DIAMOND -0.2913
-1.2041 ORDER MIX -0.0580
-1.2041 ORDER RECOIL 0.0000
-1.2041 ORDER REMAKE -0.0902
-1.2041 ORDER RIGHT -0.2430
-1.2041 ORDER SCRAMBLE 0.0000
-1.2041 ORDER TRAVEL 0.0000
-0.3010 OTHERS SEPARATE -0.2218
-0.4867 OUT </s> -0.3010
-1.6628 OUT LEFT -0.2943
-1.0607 OUT ROLL -0.2638
-1.1856 OUT TO -0.0534
-0.3010 OUTFACING POINTS -0.2688
-0.3010 OUTLET </s> -0.3010
-0.6021 OUTPOINT INTERLOCKED -0.2304
-0.6021 OUTPOINT TRIANGLE -0.1761
-1.0414 OUTSIDE COUPLE -0.2808
-1.3424 OUTSIDE COUPLES -0.2983
-1.3424 OUTSIDE INTERLOCKED -0.2304
-0.5643 OUTSIDE TRIANGLE -0.0969
-1.3424 OUTSIDE TRIANGLES -0.1761
-0.9031 OUTSIDES LINEAR -0.0414
-0.9031 OUTSIDES OUT -0.1296
-0.9031 OUTSIDES SWING -0.2683
-0.9031 OUTSIDES TO -0.0534
-0.3010 OVER CIRCULATE -0.0305
-0.3010 OWN THE -0.2914
-0.3010 PAIR OFF -0.1278
-1.3424 PARALLELOGRAM ACEY 0.0000
-1.3424 PARALLELOGRAM BEND -0.0280
-1.3424 PARALLELOGRAM CAST -0.1549
-1.3424 PARALLELOGRAM CONCEPT -0.0177
-1.3424 PARALLELOGRAM IN -0.2586
-1.3424 PARALLELOGRAM PASS -0.2104
-1.3424 PARALLELOGRAM RECYCLE -0.0478
-1.3424 PARALLELOGRAM SCOOT -0.2133
-1.3424 PARALLELOGRAM SLIDE -0.1065
-1.3424 PARALLELOGRAM SPLIT -0.2539
-1.3424 PARALLELOGRAM WALK -0.1249
-0.7782 PART </s> -0.3010
-0.4771 PART WITH -0.1856
-1.2553 PARTNER </s> -0.3010
-1.5563 PARTNER AND -0.3003
-1.2553 PARTNER GRAND -0.2583
-1.2553 PARTNER HINGE -0.1335
-0.9542 PARTNER TAG -0.2055
-0.7112 PARTNER TRADE -0.1935
-0.3010 PARTS </s> -0.3010
-0.3010 PASO </s> -0.3010
-1.8865 PASS </s> -0.3010
-1.1875 PASS AND -0.2700
-1.2844 PASS IN -0.2178
-1.4094 PASS OUT -0.1296
-0.7251 PASS THE -0.2749
-0.9088 PASS THRU -0.0554
-1.7104 PASS TO -0.2949
-0.3010 PASSING RULE 0.0000
-0.9031 PATCH ANYONE -0.1761
-0.4260 PATCH THE -0.2937
-0.8893 PEEL AND -0.2953
-1.4914 PEEL CHAIN -0.1865
-0.8381 PEEL OFF -0.1192
-1.0142 PEEL THE -0.2677
-1.0142 PEEL TO -0.0534
-0.6021 PERCOLATE </s> -0.3010
-0.7270 PERCOLATE BUT -0.1761
-1.2041 PERCOLATE OUTSIDES -0.2430
-0.3010 PERK UP -0.0458
-1.8195 PHANTOM ACEY 0.0000
-1.8195 PHANTOM ALL -0.1260
-1.8195 PHANTOM ALTER -0.0902
-1.8195 PHANTOM BEND -0.0280
-1.0414 PHANTOM BOXES -0.1461
-1.0414 PHANTOM COLUMNS -0.0969
-1.8195 PHANTOM COUPLES -0.2970
-1.8195 PHANTOM FERRIS 0.0000
-1.8195 PHANTOM FORMATION -0.1165
-1.2175 PHANTOM LINES -0.2553
-1.8195 PHANTOM LOAD 0.0000
-1.8195 PHANTOM MOTIVATE -0.1047
-1.8195 PHANTOM PASS -0.2438
-1.8195 PHANTOM TALLY 0.0000
-1.8195 PHANTOM TRADE -0.2735
-1.2175 PHANTOM WAVES -0.1919
-1.8195 PHANTOM WHEEL -0.2523
-0.3010 PING PONG 0.0000
-0.7782 PITCH DIRECTION -0.1249
-0.7782 PITCH LEFT -0.2665
-0.7782 PITCH RIGHT -0.1922
-0.3010 PLAN AHEAD 0.0000
-0.3010 PLAY </s> -0.3010
-0.5051 PLENTY </s> -0.3010
-1.2041 PLENTY INTERRUPT -0.2218
-1.2041 PLENTY POINTS -0.2341
-1.2041 PLENTY REPLACE -0.1761
-0.3010 POCUS </s> -0.3010
-1.1461 POINTS COUNTER -0.1461
-0.8451 POINTS GO -0.2663
-1.1461 POINTS LIKE 0.0000
-1.1461 POINTS PEEL -0.2329
-1.1461 POINTS ZING 0.0000
-1.1461 POINTS ZOOM -0.0322
-0.3010 POLLY WALLY 0.0000
-0.3010 PONG CIRCULATE -0.0305
-0.3010 POSITION RULE 0.0000
-0.9031 PREFER </s> -0.3010
-0.4260 PREFER THE -0.2965
-0.4771 PRESS AHEAD 0.0000
-1.0792 PRESS IN -0.2908
-1.0792 PRESS RIGHT -0.1922
-0.4771 PROMENADE </s> -0.3010
-1.0792 PROMENADE FAMILY 0.0000
-1.0792 PROMENADE ONE -0.2118
-0.3010 PULL BY -0.2743
-0.3010 PULLEY </s> -0.3010
-1.0792 QUADRUPLE BOX -0.2923
-1.0792 QUADRUPLE COLUMN -0.2881
-1.0792 QUADRUPLE FORMATION -0.2285
-1.0792 QUADRUPLE LINE -0.2982
-1.0792 QUADRUPLE WAVE -0.2949
-1.0792 QUADRUPLE WAVES -0.2762
-0.6021 QUARTER </s> -0.3010
-1.4197 QUARTER AND -0.2553
-2.2648 QUARTER BOYS -0.2923
-1.9638 QUARTER BY -0.2073
-2.2648 QUARTER CAST -0.2460
-1.6628 QUARTER IN -0.2178
-1.9638 QUARTER MIX -0.0580
-2.2648 QUARTER MORE 0.0000
-1.4197 QUARTER ONE -0.2118
-1.7877 QUARTER OUT -0.1296
-2.2648 QUARTER TAG -0.2055
-1.9638 QUARTER THE -0.2628
-1.1509 QUARTER THRU -0.0689
-1.9638 QUARTER WHEEL -0.2739
-0.6405 QUARTERS </s> -0.3010
-1.2937 QUARTERS AND -0.2561
-2.0719 QUARTERS CAST -0.2460
-2.0719 QUARTERS CRAZY -0.2553
-1.5948 QUARTERS FULL -0.1461
-2.0719 QUARTERS MIX -0.0580
-1.7709 QUARTERS REVERSE -0.2838
-1.5948 QUARTERS TAG -0.1015
-1.7709 QUARTERS THE -0.2628
-1.1176 QUARTERS THRU -0.0689
-2.0719 QUARTERS TO -0.0534
-1.7709 QUARTERS WHEEL -0.2739
-2.0719 QUARTERS WITH -0.2041
-0.7782 QUICK ANYTHING -0.1447
-0.7782 QUICK STEP -0.2910
-0.7782 QUICK TURN -0.2605
-0.3010 RALLY </s> -0.3010
-0.3010 RAMBLE </s> -0.3010
-0.6021 RATTLE </s> -0.3010
-0.6021 RATTLE AND -0.2700
-0.3010 REACH OUT -0.1296
-0.4771 REACTION </s> -0.3010
-1.3802 REACTION BUT -0.2430
-1.3802 REACTION DO -0.1761
-1.3802 REACTION REPLACE -0.1761
-1.3802 REACTION TURN -0.2766
-0.3010 REACTIVATE </s> -0.3010
-0.3010 RECOIL </s> -0.3010
-0.3547 RECYCLE </s> -0.3010
-1.6335 RECYCLE AND -0.2677
-1.6335 RECYCLE BY -0.2879
-1.9345 RECYCLE IN -0.2960
-0.7782 REFLECTED CONCEPT -0.0177
-0.7782 REFLECTED FLIP -0.1609
-0.7782 REFLECTED TAG -0.2196
-0.4771 REGROUP </s> -0.3010
-0.7782 REGROUP BY -0.2978
-0.7482 RELAY </s> -0.3010
-0.4929 RELAY THE -0.2604
-1.1461 RELEASE AH 0.0000
-1.1461 RELEASE ANYTHING -0.1447
-1.1461 RELEASE CROSSFIRE 0.0000
-1.1461 RELEASE CYCLE -0.2688
-1.1461 RELEASE LEFT -0.2960
-1.1461 RELEASE LINEAR -0.0414
-1.1461 RELEASE OFFSET -0.2041
-0.3010 RELOCATE THE -0.2832
-0.4150 REMAKE </s> -0.3010
-0.9379 REMAKE THE -0.2993
-1.4472 REMOVED BINGO 0.0000
-1.4472 REMOVED BOYS -0.2742
-1.4472 REMOVED CHASE -0.1996
-1.4472 REMOVED CONCEPT -0.0177
-1.4472 REMOVED COUPLE -0.1891
-1.1461 REMOVED DIAMOND -0.2609
-1.4472 REMOVED PARTNER -0.2071
-1.4472 REMOVED PASS -0.2104
-1.4472 REMOVED RESET 0.0000
-1.4472 REMOVED RIGHT -0.2430
-1.4472 REMOVED SLIDE -0.1065
-1.4472 REMOVED TOUCH -0.1139
-1.4472 REMOVED WALK -0.1249
-1.0792 REPLACE BUT -0.2430
-0.6021 REPLACE THE -0.2982
-1.0792 REPLACE TRADE -0.2972
-1.0792 REPLACE TURNING 0.0000
-0.3010 RESET </s> -0.3010
-0.3010 RESHAPE THE -0.2982
-2.1875 REVERSE </s> -0.3010
-1.5855 REVERSE CHECKPOINT -0.1919
-2.1875 REVERSE CIRCLE -0.2505
-2.1875 REVERSE COURTESY 0.0000
-1.4094 REVERSE CRAZY -0.2041
-1.4094 REVERSE CROSS -0.2706
-1.8865 REVERSE CUT 0.0000
-1.8865 REVERSE DIXIE -0.0435
-1.2844 REVERSE EXPLODE -0.2389
-1.8865 REVERSE FLIP -0.1609
-1.4094 REVERSE FLUTTERWHEEL -0.0263
-2.1875 REVERSE HALF -0.2840
-1.2844 REVERSE ORDER 0.0000
-2.1875 REVERSE RECYCLE -0.0478
-2.1875 REVERSE ROLLAWAY 0.0000
-1.4886 REVERSE ROTATE -0.0189
-1.4886 REVERSE SINGLE -0.2457
-1.4886 REVERSE SPLIT -0.2702
-1.7104 REVERSE SWAP -0.0943
-1.4886 REVERSE THE -0.2665
-2.1875 REVERSE TRUCK 0.0000
-1.7104 REVERSE WHEEL -0.2424
-0.3010 REVOLVE TO -0.0534
-0.6544 RIGHT </s> -0.3010
-0.9031 RIGHT AND -0.2537
-2.2455 RIGHT BY -0.2978
-2.2455 RIGHT GEE 0.0000
-1.7684 RIGHT HAND -0.2272
-2.2455 RIGHT JAY -0.2553
-1.7684 RIGHT LEFT -0.2647
-2.2455 RIGHT LOOP -0.2632
-1.7684 RIGHT NEXT 0.0000
-1.9445 RIGHT ONE -0.0826
-2.2455 RIGHT PULL 0.0000
-1.4004 RIGHT ROLL -0.2605
-2.2455 RIGHT TEACUP 0.0000
-2.2455 RIGHT THREE -0.1436
-2.2455 RIGHT TRADE -0.2735
-2.2455 RIGHT TURN -0.2605
-0.3010 RIMS TRADE -0.1935
-0.3010 RING </s> -0.3010
-0.3010 RIP OFF -0.1278
-1.2553 RIPPLE </s> -0.3010
-1.2553 RIPPLE JAYWALK -0.2218
-1.2553 RIPPLE ONE -0.2927
-1.2553 RIPPLE SEVEN 0.0000
-1.2553 RIPPLE SWING -0.2975
-0.7782 RIPPLE THE -0.2809
-1.2553 RIPPLE THREE -0.2612
-0.5016 ROLL </s> -0.3010
-1.0852 ROLL CIRCULATE -0.0305
-1.0504 ROLL TO -0.0534
-1.8633 ROLL YOUR -0.1513
-0.3010 ROLLAWAY </s> -0.3010
-1.2041 ROTARY </s> -0.3010
-1.2041 ROTARY CIRCULATE -0.0305
-1.2041 ROTARY EXPLODE -0.1950
-1.2041 ROTARY MIX -0.0580
-0.7270 ROTARY SPIN -0.2730
-1.2041 ROTARY TRADE -0.2694
-0.5925 ROTATE </s> -0.3010
-1.9542 ROTATE BY -0.2978
-0.7238 ROTATE ONE -0.0826
-1.9542 ROTATE THE -0.2879
-1.4771 ROTATE THREE -0.1436
-0.3010 RULE </s> -0.3010
-0.3979 RUN </s> -0.3010
-1.1761 RUN AND -0.2693
-1.4771 RUN FAMILY 0.0000
-0.3010 RUNNING BEAR 0.0000
-0.6021 S DELIGHT -0.0969
-0.6021 S SPIN -0.2672
-0.6021 SAME POSITION 0.0000
-0.6021 SAME SEX 0.0000
-0.3680 SASHAY </s> -0.3010
-1.1461 SASHAY FAMILY 0.0000
-0.6021 SAW </s> -0.3010
-0.6021 SAW YOUR -0.2825
-0.4260 SCATTER </s> -0.3010
-1.3802 SCATTER CIRCULATE -0.0305
-1.0792 SCATTER SCOOT -0.2737
-1.6128 SCOOT </s> -0.3010
-0.6128 SCOOT AND -0.2716
-0.7377 SCOOT BACK -0.0808
-1.4367 SCOOT CHAIN -0.1865
-1.9138 SCOOT THE -0.2879
-0.3010 SCRAMBLE </s> -0.3010
-0.3632 SEA </s> -0.3010
-1.4771 SEA DIRECTION -0.1249
-1.4771 SEA OUT -0.1296
-0.9031 SECONDLY GENEROUS -0.2788
-0.9031 SECONDLY SPLIT -0.2980
-0.9031 SECONDLY TANDEM -0.2946
-0.9031 SECONDLY THIRDLY -0.1761
-0.3010 SEE SAW 0.0000
-1.2553 SEPARATE </s> -0.3010
-0.7782 SEPARATE AND -0.2953
-0.6532 SEPARATE AROUND -0.2723
-1.2553 SEPARATE GO -0.2840
-0.3010 SET </s> -0.3010
-0.3010 SETS IN -0.2908
-0.3010 SETUP </s> -0.3010
-0.3010 SEVEN </s> -0.3010
-0.3010 SEX DISCONNECTED -0.2430
-0.3010 SHADOW </s> -0.3010
-0.3010 SHAKE AND -0.2996
-0.3010 SHAKEDOWN </s> -0.3010
-0.3010 SHAZAM </s> -0.3010
-0.3010 SHOOT THE -0.2959
-0.3010 SHOULDER HALF -0.2708
-0.3010 SHOW </s> -0.3010
-0.6021 SIAMESE CONCEPT -0.0177
-0.6021 SIAMESE DIAMOND -0.2713
-1.0792 SIDES FACE -0.1249
-1.2553 SIDES LEAD -0.0458
-1.0792 SIDES LEFT -0.2593
-0.9542 SIDES PASS -0.1588
-1.5563 SIDES REVERSE -0.2867
-1.0792 SIDES SQUARE -0.1636
-1.2553 SIDES WHEEL -0.2085
-0.3010 SIDETRACK </s> -0.3010
-0.3010 SIMPLE STYLE -0.2389
-1.6628 SINGLE BOUNCE 0.0000
-1.2648 SINGLE CHECKMATE -0.0458
-1.3617 SINGLE CIRCLE -0.2445
-1.9638 SINGLE CONCEPT -0.0177
-1.3617 SINGLE CROSS -0.2622
-1.9638 SINGLE FERRIS 0.0000
-1.4867 SINGLE FILE -0.1461
-1.9638 SINGLE POLLY 0.0000
-1.9638 SINGLE ROTARY -0.2109
-0.9224 SINGLE ROTATE -0.0458
-1.9638 SINGLE SIDETRACK 0.0000
-1.9638 SINGLE TURN -0.2605
-0.9224 SINGLE WHEEL -0.2474
-0.6990 SIX </s> -0.3010
-0.5229 SIX TWO -0.2833
-0.6021 SKIP DELETE -0.1761
-0.6021 SKIP THE -0.2999
-0.6021 SLANT ANYTHING -0.2856
-0.6021 SLANT VEER -0.1919
-0.8573 SLIDE </s> -0.3010
-0.4424 SLIDE THRU -0.0599
-0.5229 SLIP </s> -0.3010
-1.0000 SLIP CAST -0.1549
-1.0000 SLIP THE -0.3005
-0.3010 SLITHER </s> -0.3010
-0.3010 SNAP THE -0.2976
-0.4102 SO </s> -0.3010
-0.9542 SO BY -0.2845
-0.3010 SOCK IT -0.1761
-0.4771 SOLID ALL -0.2928
-1.0792 SOLID CONCEPT -0.0177
-1.0792 SOLID TOUCH -0.1139
-0.3010 SOMETHING NEW 0.0000
-1.2041 SPIN </s> -0.3010
-1.1249 SPIN CHAIN -0.1105
-0.4407 SPIN THE -0.2566
-2.1644 SPLIT </s> -0.3010
-0.9883 SPLIT CIRCULATE -0.0155
-2.1644 SPLIT CIRCULATES 0.0000
-2.1644 SPLIT COORDINATE -0.0969
-1.3193 SPLIT COUNTER -0.1139
-1.8633 SPLIT DIXIE -0.0435
-2.1644 SPLIT PERCOLATE -0.1761
-1.0504 SPLIT PHANTOM -0.1442
-1.8633 SPLIT RECYCLE -0.0478
-1.8633 SPLIT SIDETRACK 0.0000
-2.1644 SPLIT SINGLE -0.2457
-1.1644 SPLIT SQUARE -0.0552
-1.1644 SPLIT SWAP -0.0835
-1.8633 SPLIT THE -0.2993
-2.1644 SPLIT TRADE -0.2735
-1.8633 SPLIT TRANSFER -0.2314
-2.1644 SPLIT TURN -0.2766
-2.1644 SPLIT TWO -0.2253
-0.3010 SPREAD </s> -0.3010
-1.2268 SQUARE </s> -0.3010
-0.7931 SQUARE CHAIN -0.1343
-2.0719 SQUARE THE -0.3005
-0.5667 SQUARE THRU -0.0318
-0.6990 SQUEEZE </s> -0.3010
-0.5229 SQUEEZE THE -0.2942
-0.6021 STABLE BEND -0.0280
-0.6021 STABLE CONCEPT -0.0177
-0.3010 STACK THE -0.2785
-0.9031 STAGGER CIRCULATE -0.0305
-0.9031 STAGGER CONCEPT -0.0177
-0.9031 STAGGER DOUBLE -0.1383
-0.9031 STAGGER SPLIT -0.2539
-0.3010 STAMPEDE </s> -0.3010
-0.9379 STAR </s> -0.3010
-1.7160 STAR A -0.2982
-1.7160 STAR ALL -0.2990
-1.7160 STAR FAMILY 0.0000
-1.4150 STAR ONE -0.0826
-1.7160 STAR PROMENADE -0.1249
-0.6368 STAR THRU -0.0599
-1.7160 STAR TURN -0.2980
-1.7160 STAR WITH -0.2041
-1.2041 START </s> -0.3010
-1.2041 START LOAD 0.0000
-1.2041 START PASS -0.2104
-1.2041 START RIGHT -0.2430
-1.2041 START SPIN -0.1055
-0.9031 START SPLIT -0.2702
-1.2041 START TOUCH -0.2711
-1.6435 STEP </s> -0.3010
-0.4393 STEP AND -0.2888
-1.6435 STEP AT 0.0000
-1.3424 STEP THRU -0.0689
-1.3424 STEP TO -0.0534
-0.3010 STEPS AT 0.0000
-0.3010 STIMULATE </s> -0.3010
-1.0792 STINGY CUT 0.0000
-1.0792 STINGY FOLLOW -0.1549
-1.0792 STINGY GENEROUS -0.2788
-0.7782 STINGY SPIN -0.1055
-1.0792 STINGY SPLIT -0.2702
-1.9243 STRETCH AH 0.0000
-1.9243 STRETCH BEND -0.0280
-1.9243 STRETCH CAST -0.1549
-1.9243 STRETCH CHASE -0.1996
-1.9243 STRETCH CONCEPT -0.0177
-1.9243 STRETCH CROSS -0.2931
-1.9243 STRETCH CROSSFIRE 0.0000
-1.9243 STRETCH FLUTTERWHEEL -0.1181
-1.9243 STRETCH FOLLOW -0.2430
-1.9243 STRETCH HINGE -0.1335
-1.6232 STRETCH LEFT -0.2647
-1.9243 STRETCH LINEAR -0.0414
-1.9243 STRETCH MINI -0.0580
-1.4472 STRETCH PARTNER -0.1761
-1.9243 STRETCH RECYCLE -0.0478
-1.6232 STRETCH REVERSE -0.2596
-1.6232 STRETCH SHAKEDOWN 0.0000
-1.6232 STRETCH SINGLE -0.2181
-1.9243 STRETCH SLIDE -0.2361
-1.4472 STRETCH SPLIT -0.2230
-1.6232 STRETCH STEP -0.1047
-1.9243 STRETCH SWING -0.2795
-1.6232 STRETCH TOUCH -0.1027
-1.6232 STRETCH TURN -0.2159
-1.9243 STRETCH TWO -0.2601
-1.9243 STRETCH VEER -0.1919
-1.4472 STRETCH WHEEL -0.1474
-1.9243 STRETCH ZING 0.0000
-1.9243 STRETCH ZOOM -0.0322
-0.4472 STRETCHED LINE -0.2811
-0.8451 STRETCHED WAVE -0.2949
-0.3010 STRIP THE -0.2838
-1.0000 STRUT </s> -0.3010
-0.6990 STRUT LEFT -0.2593
-0.6990 STRUT RIGHT -0.1826
-0.8751 STYLE </s> -0.3010
-0.4357 STYLE TO -0.0275
-0.3010 SUBSTITUTE </s> -0.3010
-1.8195 SWAP </s> -0.3010
-0.4216 SWAP AROUND -0.0991
-0.9744 SWAP THE -0.2459
-0.3010 SWEEP A -0.2609
-1.3153 SWING </s> -0.3010
-2.0934 SWING ALONG 0.0000
-1.1392 SWING AND -0.2924
-2.0934 SWING CAST -0.1549
-2.0934 SWING CHAIN -0.1865
-2.0934 SWING O -0.2946
-2.0934 SWING SLIP -0.2553
-1.3153 SWING THE -0.2976
-0.5619 SWING THRU -0.0569
-1.7924 SWING YOUR -0.2788
-1.4771 SWITCH AND -0.2975
-0.5740 SWITCH THE -0.2573
-0.6990 SWITCH TO -0.0275
-0.3010 T BONE 0.0000
-0.7047 TAG </s> -0.3010
-1.8808 TAG AND -0.2946
-1.1818 TAG BACK -0.0555
-1.8808 TAG FAMILY 0.0000
-1.8808 TAG REACTION -0.1249
-0.7669 TAG THE -0.2330
-1.5798 TAG YOUR -0.1513
-0.4260 TAGGING CALL 0.0000
-0.9031 TAGGING CALLS 0.0000
-1.0792 TAKE FOUR -0.2493
-1.0792 TAKE N -0.0969
-1.0792 TAKE ONE -0.2948
-1.0792 TAKE THREE -0.2612
-1.0792 TAKE TWO -0.2253
-1.0792 TAKE ZERO 0.0000
-0.3010 TALLY HO 0.0000
-2.1335 TANDEM AH 0.0000
-2.1335 TANDEM ALTER -0.0902
-1.6564 TANDEM BASED 0.0000
-2.1335 TANDEM BEND -0.0280
-2.1335 TANDEM BINGO 0.0000
-2.1335 TANDEM BOUNCE -0.0580
-1.6564 TANDEM BOX -0.2041
-2.1335 TANDEM CAST -0.1549
-2.1335 TANDEM CENTERS -0.2755
-2.1335 TANDEM CHASE -0.2566
-2.1335 TANDEM CONCEPT -0.0177
-2.1335 TANDEM COUPLE -0.1891
-2.1335 TANDEM CRISS 0.0000
-1.5315 TANDEM CROSS -0.2685
-2.1335 TANDEM DIAMOND -0.2713
-2.1335 TANDEM DIXIE -0.1526
-2.1335 TANDEM FAN -0.2445
-1.8325 TANDEM FOLLOW -0.1963
-1.8325 TANDEM HINGE -0.0645
-2.1335 TANDEM LEFT -0.2719
-2.1335 TANDEM LOCK -0.2139
-2.1335 TANDEM MINI -0.0580
-2.1335 TANDEM PASS -0.2104
-2.1335 TANDEM PEEL -0.2568
-2.1335 TANDEM QUARTER -0.2692
-2.1335 TANDEM REMAKE -0.0902
-1.8325 TANDEM RESET 0.0000
-1.8325 TANDEM REVERSE -0.2627
-2.1335 TANDEM RIGHT -0.2834
-2.1335 TANDEM SCOOT -0.2133
-1.8325 TANDEM SINGLE -0.2181
-2.1335 TANDEM SPLIT -0.2702
-1.8325 TANDEM SQUARE -0.2248
-1.8325 TANDEM STEP -0.1047
-1.5315 TANDEM SWING -0.0827
-2.1335 TANDEM TANDEM -0.2781
-2.1335 TANDEM TOUCH -0.2711
-2.1335 TANDEM TRAIL -0.2430
-2.1335 TANDEM TURN -0.2605
-2.1335 TANDEM TWO -0.2601
-1.2884 TANDEM TWOSOME -0.1313
-2.1335 TANDEM WALK -0.1249
-2.1335 TANDEM WHEEL -0.2548
-2.1335 TANDEM ZING 0.0000
-2.1335 TANDEM ZOOM -0.0322
-0.3010 TEA MUG 0.0000
-0.3010 TEACUP CHAIN -0.2751
-0.3010 TEAM UP -0.0458
-0.3802 THAR </s> -0.3010
-1.0792 THAR FAMILY 0.0000
-2.8876 THE ALAMO -0.2553
-2.4105 THE ANYONE -0.1249
-2.4105 THE AXLE 0.0000
-2.8876 THE BASES 0.0000
-2.8876 THE BEAUS -0.2499
-2.8876 THE BELLES -0.2730
-1.9334 THE BOAT 0.0000
-2.5866 THE BOBBIN 0.0000
-2.5866 THE BOX -0.2923
-2.1886 THE BOYS -0.2553
-2.4105 THE CENTER -0.1461
-2.1095 THE CENTERS -0.2621
-2.8876 THE CLUTCH 0.0000
-1.5866 THE COLUMN -0.1498
-2.4105 THE CORNER 0.0000
-1.9845 THE DEUCEY -0.0414
-1.5259 THE DIAMOND -0.1070
-2.5866 THE ENDS -0.2846
-2.8876 THE FINAL 0.0000
-2.2856 THE FLOW 0.0000
-2.8876 THE FRACTION -0.2430
-2.2856 THE FRACTIONS 0.0000
-2.1886 THE GALAXY -0.0726
-2.8876 THE GAMUT 0.0000
-2.1095 THE GEARS 0.0000
-2.4105 THE GIRLS -0.2688
-2.8876 THE GNAT 0.0000
-2.4105 THE HEAD -0.2304
-2.2856 THE HINGE -0.1335
-2.0425 THE HOURGLASS -0.0378
-2.8876 THE INSIDE -0.2430
-2.5866 THE INTERLOCKED -0.2430
-2.8876 THE JUDGE 0.0000
-2.4105 THE K 0.0000
-2.4105 THE KEY 0.0000
-2.8876 THE LAST 0.0000
-2.8876 THE LEAD -0.2762
-2.5866 THE LEADERS 0.0000
-1.2966 THE LINE -0.0902
-2.8876 THE LINES -0.2900
-2.1095 THE LOCK -0.1627
-2.5866 THE MEN -0.1963
-2.8876 THE MIDDLE 0.0000
-1.4405 THE OCEAN -0.0401
-2.4105 THE OUTSIDE -0.1047
-2.5866 THE OUTSIDES -0.1761
-2.5866 THE PARTS 0.0000
-2.5866 THE PASS -0.2954
-2.5866 THE PULLEY 0.0000
-2.8876 THE RING 0.0000
-1.7415 THE SEA -0.0280
-2.8876 THE SET 0.0000
-2.8876 THE SETUP 0.0000
-2.2856 THE SHADOW 0.0000
-2.8876 THE SPLIT -0.2980
-2.8876 THE SQUARE -0.2745
-1.9334 THE STAR -0.1978
-2.8876 THE TAG -0.2055
-2.5866 THE THAR -0.0669
-2.5866 THE THIRD 0.0000
-2.8876 THE THREERD 0.0000
-1.1317 THE TOP 0.0000
-2.5866 THE TRIANGLE -0.2802
-2.8876 THE VERY -0.1761
-1.3435 THE WAVE -0.0846
-2.8876 THE WAY -0.2218
-1.6835 THE WINDMILL 0.0000
-0.3010 THIRD PART 0.0000
-0.6021 THIRDLY FOURTHLY -0.1761
-0.6021 THIRDLY TANDEM -0.2946
-0.3010 THIRDS RECYCLE -0.0478
-0.3010 THOSE FACING -0.1761
-1.0574 THREE </s> -0.3010
-1.3847 THREE BY -0.2192
-2.2878 THREE CIRCULATE -0.0305
-2.2878 THREE DISTINCT 0.0000
-2.2878 THREE FIFTHS 0.0000
-2.2878 THREE FOUR -0.2493
-2.2878 THREE INVERT -0.0414
-2.2878 THREE OUT -0.2615
-2.2878 THREE PARTS 0.0000
-0.5169 THREE QUARTERS 0.0000
-2.2878 THREE STEPS 0.0000
-2.2878 THREE SWING -0.1619
-1.9868 THREE TIMES 0.0000
-2.2878 THREE TO -0.0534
-2.2878 THREE WORK 0.0000
-0.3010 THREERD HAND -0.2872
-0.3830 THRU </s> -0.3010
-2.0000 THRU AND -0.2505
-2.3979 THRU FAMILY 0.0000
-1.8539 THRU FOUR -0.2493
-2.3979 THRU INTERRUPT -0.1761
-2.6990 THRU NINE 0.0000
-2.6990 THRU OTHERS 0.0000
-2.0969 THRU SEPARATE -0.1919
-2.6990 THRU SIDES -0.2632
-2.6990 THRU THE -0.2993
-1.9208 THRU THREE -0.2587
-2.2218 THRU TO -0.0534
-2.3979 THRU TURN -0.2950
-1.9208 THRU TWO -0.2253
-2.6990 THRU VARIATIONS 0.0000
-2.6990 THRU WITH -0.2389
-0.3010 TIME </s> -0.3010
-0.3010 TIMES </s> -0.3010
-0.3619 TO A -0.1437
-1.4853 TO AN -0.0512
-2.3304 TO DIAMONDS 0.0000
-2.3304 TO INTERLOCKED -0.2900
-2.3304 TO LINE -0.1332
-2.3304 TO ME 0.0000
-1.8533 TO THE -0.2993
-0.3165 TOP </s> -0.3010
-1.7559 TOP AND -0.2513
-0.3010 TOPS </s> -0.3010
-1.7782 TOUCH </s> -0.3010
-0.4559 TOUCH A -0.2546
-1.1761 TOUCH BY -0.2153
-1.1761 TOUCH ONE -0.1989
-1.3010 TRACK FOUR -0.2493
-1.3010 TRACK N -0.0969
-1.3010 TRACK ONE -0.2948
-1.3010 TRACK THREE -0.2612
-0.6021 TRACK TWO -0.2253
-1.3010 TRACK ZERO 0.0000
-0.7782 TRADE </s> -0.3010
-1.2788 TRADE AND -0.2631
-1.7559 TRADE BACK -0.0969
-1.4548 TRADE BY -0.2708
-2.0569 TRADE CHASE -0.1996
-1.2118 TRADE CIRCULATE -0.0305
-2.0569 TRADE COUPLE -0.1891
-2.0569 TRADE FAMILY 0.0000
-2.0569 TRADE FOLLOW -0.1549
-2.0569 TRADE LIKE 0.0000
-2.0569 TRADE MOTIVATE -0.1047
-1.7559 TRADE PASS -0.1388
-2.0569 TRADE PERCOLATE -0.1761
-1.1538 TRADE THE -0.2622
-2.0569 TRADE WITH -0.2041
-2.0569 TRADE ZOOM -0.0322
-0.6990 TRAIL </s> -0.3010
-1.1249 TRAIL OFF -0.1278
-1.0000 TRAIL THRU -0.0674
-0.9031 TRAIL TO -0.0534
-0.3010 TRAILERS HOP 0.0000
-0.3010 TRAILING END -0.2218
-0.8293 TRANSFER </s> -0.3010
-0.6185 TRANSFER AND -0.2761
-0.9542 TRANSFER THE -0.2896
-0.9031 TRAPEZOID BRACE 0.0000
-0.9031 TRAPEZOID CIRCULATE -0.0305
-0.9031 TRAPEZOID COUPLE -0.1891
-0.9031 TRAPEZOID FORMATION -0.1165
-0.3010 TRAVEL THRU -0.0689
-1.3291 TRIANGLE </s> -0.3010
-1.8062 TRIANGLE CHAIN -0.1865
-0.6021 TRIANGLE CIRCULATE -0.0305
-1.8062 TRIANGLE CROSS -0.2831
-1.3291 TRIANGLE FORMATION -0.1165
-1.2041 TRIANGLE PEEL -0.1319
-1.8062 TRIANGLE RECYCLE -0.0478
-1.8062 TRIANGLE SWAP -0.0943
-1.8062 TRIANGLE WHEEL -0.2596
-1.8062 TRIANGLE WORK 0.0000
-0.6021 TRIANGLES </s> -0.3010
-0.6021 TRIANGLES WORK 0.0000
-0.3010 TRIP THE -0.3005
-0.6792 TRIPLE BOX -0.0864
-1.3324 TRIPLE BOXES -0.2041
-1.9345 TRIPLE COLUMN -0.2881
-1.6335 TRIPLE CROSS -0.2810
-1.6335 TRIPLE DIAMOND -0.2609
-1.9345 TRIPLE FORMATIONS 0.0000
-1.6335 TRIPLE LINE -0.2926
-1.2355 TRIPLE LINES -0.2430
-1.9345 TRIPLE PLAY 0.0000
-1.9345 TRIPLE SCOOT -0.2903
-1.6335 TRIPLE STAR -0.1871
-1.9345 TRIPLE TRADE -0.2218
-1.4574 TRIPLE WAVE -0.2887
-0.3010 TRUCK </s> -0.3010
-0.8856 TURN </s> -0.3010
-1.8633 TURN A -0.2578
-1.0504 TURN AND -0.2814
-1.3193 TURN BACK -0.0726
-2.1644 TURN IT -0.1761
-2.1644 TURN ONE -0.2118
-1.2613 TURN THE -0.2942
-1.8633 TURN THREE -0.1436
-1.3862 TURN THRU -0.0645
-1.0504 TURN TO -0.0534
-2.1644 TURN YOUR -0.2974
-0.3010 TURNING THE -0.2959
-0.3010 TURNS </s> -0.3010
-0.3010 TURNSTYLE </s> -0.3010
-0.3010 TWICE </s> -0.3010
-0.3010 TWIRL </s> -0.3010
-0.3802 TWIST AND -0.2917
-1.0792 TWIST THE -0.2785
-0.7959 TWO </s> -0.3010
-1.3979 TWO ACEY 0.0000
-2.0000 TWO BY -0.2231
-0.9208 TWO FACED 0.0000
-2.0000 TWO MEET 0.0000
-2.0000 TWO STEPS 0.0000
-1.0458 TWO THIRDS 0.0000
-1.3979 TWO THREE -0.2587
-2.0000 TWO TO -0.0534
-2.0000 TWO TWO -0.2833
-1.2304 TWOSOME BINGO 0.0000
-1.2304 TWOSOME BOOMERANG 0.0000
-1.2304 TWOSOME CIRCULATE -0.0305
-1.5315 TWOSOME CONCEPT -0.0177
-1.5315 TWOSOME CROSSFIRE 0.0000
-1.5315 TWOSOME HINGE -0.1335
-1.5315 TWOSOME LEFT -0.2943
-1.5315 TWOSOME RECYCLE -0.0478
-1.2304 TWOSOME SINGLE -0.2457
-1.5315 TWOSOME SWING -0.1619
-1.5315 TWOSOME TOUCH -0.1139
-1.5315 TWOSOME TRADE -0.2218
-1.5315 TWOSOME ZOOM -0.0322
-0.3010 U TURN -0.2797
-0.7782 UNWRAP FAMILY 0.0000
-0.4771 UNWRAP THE -0.2838
-0.3522 UP </s> -0.3010
-1.2553 UP THE -0.2896
-0.3010 VARIATIONS </s> -0.3010
-1.2553 VEER FAMILY 0.0000
-0.6532 VEER LEFT -0.2665
-0.6532 VEER RIGHT -0.1891
-1.4150 VERTICAL </s> -0.3010
-1.4150 VERTICAL DIXIE -0.1526
-1.4150 VERTICAL GRAND -0.2872
-0.9379 VERTICAL ONE -0.0826
-0.6368 VERTICAL TAG -0.0223
-1.4150 VERTICAL THREE -0.1436
-0.6021 VERY CENTERS -0.2688
-0.6021 VERY ENDS -0.2676
-0.4771 WALK AND -0.2880
-1.6232 WALK AROUND -0.2840
-1.6232 WALK BEAUS -0.2762
-1.6232 WALK BELLES -0.2730
-1.6232 WALK BOYS -0.2923
-1.6232 WALK GIRLS -0.2906
-1.3222 WALK OUT -0.2717
-0.3010 WALLY </s> -0.3010
-0.4219 WAVE </s> -0.3010
-2.0294 WAVE AND -0.2806
-2.0294 WAVE BASED 0.0000
-2.3304 WAVE BUT -0.2730
-2.3304 WAVE CENTERS -0.2820
-2.3304 WAVE CENTRAL -0.2499
-2.3304 WAVE CONCEPT -0.0177
-2.3304 WAVE EXPLODE -0.1950
-2.3304 WAVE FAMILY 0.0000
-2.3304 WAVE IN -0.2586
-2.3304 WAVE OUT -0.2615
-2.0294 WAVE RECYCLE -0.0478
-2.3304 WAVE RULE 0.0000
-1.8533 WAVE SWING -0.1619
-2.3304 WAVE SWITCH -0.1663
-1.6314 WAVE THE -0.2937
-2.3304 WAVE THREE -0.2965
-2.3304 WAVE TWO -0.2601
-1.2553 WAVES CIRCULATE -0.0305
-0.9542 WAVES CONCEPT -0.0177
-0.9542 WAVES IN -0.2586
-1.2553 WAVES LINES -0.2900
-1.2553 WAVES OF -0.1383
-1.2553 WAVES OUT -0.2615
-1.2553 WAVES SPLIT -0.2797
-0.7782 WAY AROUND -0.0991
-0.7782 WAY GRAND -0.2802
-0.7782 WAY THAR -0.0669
-0.3590 WEAVE </s> -0.3010
-1.2041 WEAVE THE -0.3005
-0.9542 WHEEL </s> -0.3010
-0.9744 WHEEL AND -0.2164
-1.6946 WHEEL AROUND -0.0902
-2.2967 WHEEL CENTERS -0.2884
-0.9956 WHEEL FAN -0.1796
-1.2175 WHEEL THE -0.2767
-2.2967 WHEEL THREE -0.2965
-1.0414 WHEEL THRU -0.0689
-0.3010 WHIZ </s> -0.3010
-0.3010 WIND THE -0.2999
-1.0280 WINDMILL </s> -0.3010
-1.0280 WINDMILL FORWARD -0.1963
-1.5051 WINDMILL IN -0.2178
-1.2041 WINDMILL LEFT -0.2665
-1.5051 WINDMILL OUT -0.1296
-0.7270 WINDMILL RIGHT -0.1922
-0.6990 WITH A -0.2910
-1.4771 WITH AN -0.2730
-1.4771 WITH CONFIDENCE 0.0000
-1.4771 WITH FLIP -0.2780
-1.4771 WITH SPIN -0.1055
-0.8751 WITH THE -0.2988
-1.4771 WITH TRADE -0.2735
-0.3010 WORK SOLID -0.0669
-1.0000 WORKING BACKWARD 0.0000
-1.3010 WORKING DIRECTION -0.2218
-0.8239 WORKING FORWARD -0.1963
-1.0000 WORKING LEFT -0.2977
-1.0000 WORKING RIGHT -0.2961
-0.3010 WRAP TO -0.0198
-0.3010 WRONG WAY -0.1249
-0.3010 YOU ARE 0.0000
-0.9652 YOUR BLOCK -0.1402
-2.0792 YOUR CORNER -0.0969
-2.0792 YOUR GIRL 0.0000
-2.0792 YOUR IMAGE 0.0000
-1.6021 YOUR LEADER 0.0000
-2.0792 YOUR LID 0.0000
-0.5351 YOUR NEIGHBOR 0.0000
-1.3802 YOUR PARTNER -0.2361
-1.2553 Z AXLE -0.0969
-1.2553 Z CHASE -0.1996
-1.2553 Z CONCEPT -0.0177
-1.2553 Z SHAKEDOWN 0.0000
-0.7782 Z SPLIT -0.2230
-1.2553 Z SWAP -0.0943
-1.2553 Z WALK -0.1249
-0.3010 ZAG </s> -0.3010
-0.3010 ZERO </s> -0.3010
-0.9031 ZIG </s> -0.3010
-0.9031 ZIG AND -0.3003
-0.6021 ZIG ZAG 0.0000
-0.3010 ZING </s> -0.3010
-0.3010 ZIP CODE 0.0000
-0.3358 ZOOM </s> -0.3010
-1.4150 ZOOM AND -0.2836

\3-grams:
-0.3010 <s> ACEY DEUCEY
-0.3010 <s> AH SO
-0.7782 <s> ALAMO LEFT
-0.7782 <s> ALAMO STYLE
-0.7782 <s> ALAMO SWING
-1.9912 <s> ALL AROUND
-0.4534 <s> ALL EIGHT
-0.8943 <s> ALL FOUR
-1.9912 <s> ALL LADIES
-1.0000 <s> ALLEMANDE FAMILY
-0.5229 <s> ALLEMANDE LEFT
-1.0000 <s> ALLEMANDE THAR
-0.3010 <s> ALONG </s>
-0.7782 <s> ALTER AND
-0.4771 <s> ALTER THE
-0.3010 <s> AND WEAVE
-0.4260 <s> ANY HAND
-0.9031 <s> ANY TAGGING
-0.6021 <s> ANYONE HOP
-0.6021 <s> ANYONE LIKE
-0.6021 <s> ANYTHING AND
-1.3802 <s> ANYTHING CHAIN
-1.3802 <s> ANYTHING CONCEPT
-1.3802 <s> ANYTHING REACTION
-1.0792 <s> ANYTHING THE
-1.3802 <s> ANYTHING TO
-0.3010 <s> ARM TURNS
-0.3010 <s> AS COUPLES
-0.3010 <s> BACK JAY
-1.0000 <s> BEAUS AND
-1.0000 <s> BEAUS CROSS
-1.0000 <s> BEAUS HOP
-1.0000 <s> BEAUS TRADE
-1.0000 <s> BEAUS WALK
-0.3010 <s> BEER MUG
-1.0000 <s> BELLES AND
-0.6990 <s> BELLES CROSS
-1.0000 <s> BELLES TRADE
-1.0000 <s> BELLES WALK
-0.3010 <s> BEND THE
-0.3010 <s> BIAS CIRCULATE
-0.3010 <s> BIG BLOCK
-0.3010 <s> BINGO </s>
-0.3010 <s> BLOCK FORMATION
-0.3010 <s> BOOMERANG </s>
-0.3010 <s> BOUNCE THE
-1.1461 <s> BOX CIRCULATE
-0.8451 <s> BOX COUNTER
-1.1461 <s> BOX RECYCLE
-1.1461 <s> BOX SPLIT
-1.1461 <s> BOX THE
-1.1461 <s> BOX TRANSFER
-1.4150 <s> BOYS DISCONNECTED
-1.4150 <s> BOYS FACE
-1.4150 <s> BOYS FOLD
-1.4150 <s> BOYS HOP
-1.4150 <s> BOYS IN
-1.4150 <s> BOYS JAYWALK
-1.4150 <s> BOYS KICK
-1.4150 <s> BOYS ONLY
-1.4150 <s> BOYS PRESS
-1.4150 <s> BOYS RUN
-1.4150 <s> BOYS TRADE
-1.4150 <s> BOYS TURN
-1.4150 <s> BOYS WALK
-0.3010 <s> BRACE THRU
-0.7782 <s> BREAKER ANYTHING
-0.7782 <s> BREAKER MIX
-0.7782 <s> BREAKER THREE
-1.0000 <s> BUSY ANYTHING
-1.0000 <s> BUSY CROSS
-1.0000 <s> BUSY CROSSFIRE
-1.0000 <s> BUSY MIX
-1.0000 <s> BUSY SINGLE
-1.8195 <s> BUTTERFLY CHASE
-1.8195 <s> BUTTERFLY CHECKMATE
-1.8195 <s> BUTTERFLY CIRCULATE
-1.8195 <s> BUTTERFLY CLOVERLEAF
-1.8195 <s> BUTTERFLY COORDINATE
-1.8195 <s> BUTTERFLY CROSS
-1.8195 <s> BUTTERFLY DOUBLE
-1.8195 <s> BUTTERFLY FORMATION
-1.8195 <s> BUTTERFLY HORSESHOE
-1.8195 <s> BUTTERFLY LEFT
-1.5185 <s> BUTTERFLY PASS
-1.8195 <s> BUTTERFLY PEEL
-1.8195 <s> BUTTERFLY REMAKE
-1.8195 <s> BUTTERFLY REVERSE
-1.8195 <s> BUTTERFLY RIGHT
-1.8195 <s> BUTTERFLY SCOOT
-1.8195 <s> BUTTERFLY SHAKEDOWN
-1.8195 <s> BUTTERFLY SLIDE
-1.8195 <s> BUTTERFLY SPLIT
-1.8195 <s> BUTTERFLY SQUARE
-1.8195 <s> BUTTERFLY SWAP
-1.8195 <s> BUTTERFLY SWING
-1.8195 <s> BUTTERFLY TOUCH
-1.8195 <s> BUTTERFLY TRACK
-1.8195 <s> BUTTERFLY TRADE
-1.8195 <s> BUTTERFLY TRANSFER
-1.8195 <s> BUTTERFLY TURN
-1.8195 <s> BUTTERFLY VEER
-1.8195 <s> BUTTERFLY WALK
-1.5185 <s> BUTTERFLY WHEEL
-1.8195 <s> BUTTERFLY ZING
-0.3010 <s> BY GOLLY
-0.3010 <s> CALIFORNIA TWIRL
-0.6990 <s> CAST A
-1.0000 <s> CAST BACK
-0.6990 <s> CAST OFF
-1.2041 <s> CATCH ANYTHING
-1.2041 <s> CATCH FOUR
-1.2041 <s> CATCH MIX
-0.9031 <s> CATCH ONE
-1.2041 <s> CATCH SWITCH
-1.2041 <s> CATCH THREE
-1.2041 <s> CATCH TWO
-1.5563 <s> CENTERS ARM
-1.5563 <s> CENTERS CAST
-1.5563 <s> CENTERS CIRCULATE
-1.2553 <s> CENTERS CROSS
-1.5563 <s> CENTERS HINGE
-1.5563 <s> CENTERS IN
-1.5563 <s> CENTERS LATERAL
-1.5563 <s> CENTERS QUARTER
-1.5563 <s> CENTERS RIGHT
-1.2553 <s> CENTERS RUN
-1.5563 <s> CENTERS SHAZAM
-1.5563 <s> CENTERS STEP
-1.5563 <s> CENTERS THREE
-1.5563 <s> CENTERS TRADE
-1.5563 <s> CENTERS WORK
-1.5563 <s> CENTERS ZOOM
-1.2041 <s> CENTRAL CHOICE
-1.2041 <s> CENTRAL CONCEPT
-1.2041 <s> CENTRAL COUNTER
-1.2041 <s> CENTRAL LOAD
-1.2041 <s> CENTRAL RAMBLE
-1.2041 <s> CENTRAL SCRAMBLE
-1.2041 <s> CENTRAL SPIN
-1.2041 <s> CENTRAL STAMPEDE
-1.2041 <s> CHAIN DOWN
-0.4260 <s> CHAIN REACTION
-1.2041 <s> CHAIN THE
-1.0000 <s> CHANGE LANES
-0.5229 <s> CHANGE THE
-1.0000 <s> CHANGE YOUR
-1.0000 <s> CHASE AND
-1.3010 <s> CHASE BACK
-1.3010 <s> CHASE CHAIN
-1.3010 <s> CHASE RIGHT
-0.8239 <s> CHASE THE
-1.0000 <s> CHASE YOUR
-0.3010 <s> CHASER S
-1.0000 <s> CHECKERBOARD ANYTHING
-1.0000 <s> CHECKERBOARD RECYCLE
-1.0000 <s> CHECKERBOARD SWAP
-1.0000 <s> CHECKERBOARD SWING
-1.0000 <s> CHECKERBOARD TAG
-0.9031 <s> CHECKERBOX ANYTHING
-0.9031 <s> CHECKERBOX RECYCLE
-0.9031 <s> CHECKERBOX SWAP
-0.9031 <s> CHECKERBOX TURN
-0.3010 <s> CHECKMATE </s>
-0.3010 <s> CHECKOVER </s>
-1.0000 <s> CHECKPOINT </s>
-1.0000 <s> CHECKPOINT AH
-1.0000 <s> CHECKPOINT BOX
-1.0000 <s> CHECKPOINT COUNTER
-1.0000 <s> CHECKPOINT TAG
-0.3010 <s> CHISEL THRU
-0.3010 <s> CHOICE </s>
-0.3010 <s> CHUCK A
-0.5619 <s> CIRCLE BY
-1.7924 <s> CIRCLE FAMILY
-1.0142 <s> CIRCLE FOUR
-1.7924 <s> CIRCLE LEFT
-1.7924 <s> CIRCLE RIGHT
-1.0934 <s> CIRCLE TO
-0.6021 <s> CIRCULATE </s>
-0.9031 <s> CIRCULATE FAMILY
-0.9031 <s> CIRCULATE ONE
-0.3010 <s> CLOVER AND
-0.6021 <s> CLOVERLEAF </s>
-0.6021 <s> CLOVERLEAF AND
-0.3010 <s> COLUMN CIRCULATE
-0.3010 <s> COLUMS OF
-2.1523 <s> CONCENTRIC AH
-2.1523 <s> CONCENTRIC ALTER
-2.1523 <s> CONCENTRIC BEND
-1.6752 <s> CONCENTRIC BOX
-2.1523 <s> CONCENTRIC CAST
-1.8513 <s> CONCENTRIC CHASE
-2.1523 <s> CONCENTRIC CONCEPT
-2.1523 <s> CONCENTRIC COUPLE
-2.1523 <s> CONCENTRIC CRISS
-1.8513 <s> CONCENTRIC CROSS
-2.1523 <s> CONCENTRIC CROSSFIRE
-2.1523 <s> CONCENTRIC CUT
-1.6752 <s> CONCENTRIC DIAMOND
-2.1523 <s> CONCENTRIC DIXIE
-2.1523 <s> CONCENTRIC DO
-2.1523 <s> CONCENTRIC DOUBLE
-2.1523 <s> CONCENTRIC EXPLODE
-2.1523 <s> CONCENTRIC EXTEND
-2.1523 <s> CONCENTRIC FAN
-2.1523 <s> CONCENTRIC FLIP
-2.1523 <s> CONCENTRIC FLUTTERWHEEL
-1.8513 <s> CONCENTRIC FOLLOW
-2.1523 <s> CONCENTRIC HALF
-2.1523 <s> CONCENTRIC HINGE
-2.1523 <s> CONCENTRIC LEAD
-2.1523 <s> CONCENTRIC LEFT
-2.1523 <s> CONCENTRIC LINEAR
-2.1523 <s> CONCENTRIC LOCKIT
-2.1523 <s> CONCENTRIC MINI
-2.1523 <s> CONCENTRIC MIX
-2.1523 <s> CONCENTRIC MOTIVATE
-2.1523 <s> CONCENTRIC PAIR
-1.6752 <s> CONCENTRIC PASS
-1.5502 <s> CONCENTRIC PEEL
-2.1523 <s> CONCENTRIC RECYCLE
-1.6752 <s> CONCENTRIC REVERSE
-2.1523 <s> CONCENTRIC RIGHT
-2.1523 <s> CONCENTRIC SCOOT
-2.1523 <s> CONCENTRIC SHAKEDOWN
-2.1523 <s> CONCENTRIC SLIDE
-2.1523 <s> CONCENTRIC SPIN
-2.1523 <s> CONCENTRIC SQUARE
-2.1523 <s> CONCENTRIC STAR
-2.1523 <s> CONCENTRIC STEP
-2.1523 <s> CONCENTRIC SWING
-2.1523 <s> CONCENTRIC TOUCH
-2.1523 <s> CONCENTRIC TRADE
-2.1523 <s> CONCENTRIC TRAIL
-1.8513 <s> CONCENTRIC TURN
-2.1523 <s> CONCENTRIC TWO
-2.1523 <s> CONCENTRIC VEER
-2.1523 <s> CONCENTRIC WALK
-2.1523 <s> CONCENTRIC WHEEL
-2.1523 <s> CONCENTRIC ZIG
-2.1523 <s> CONCENTRIC ZING
-2.1523 <s> CONCENTRIC ZOOM
-0.7782 <s> COORDINATE </s>
-0.7782 <s> COORDINATE AND
-0.7782 <s> COORDINATE REPLACE
-1.0000 <s> COUNTER </s>
-1.0000 <s> COUNTER COUPLE
-1.0000 <s> COUNTER MOTIVATE
-1.0000 <s> COUNTER PERCOLATE
-1.0000 <s> COUNTER ROTATE
-0.3010 <s> COUPLE UP
-1.3802 <s> COUPLES CIRCULATE
-1.3802 <s> COUPLES HINGE
-1.3802 <s> COUPLES TRADE
-0.4260 <s> COUPLES TWOSOME
-0.3010 <s> COURTESY TURN
-0.7782 <s> CRAZY CIRCULATE
-1.2553 <s> CRAZY CONCEPT
-1.2553 <s> CRAZY COUNTER
-1.2553 <s> CRAZY FLUTTERWHEEL
-1.2553 <s> CRAZY MIX
-1.2553 <s> CRAZY TRADE
-1.2553 <s> CRAZY TRIANGLE
-0.3010 <s> CRISS CROSS
-1.9912 <s> CROSS </s>
-1.6902 <s> CROSS AND
-1.9912 <s> CROSS BACK
-1.9912 <s> CROSS BY
-1.9912 <s> CROSS CAST
-1.5141 <s> CROSS CHAIN
-1.9912 <s> CROSS CHUCK
-1.6902 <s> CROSS CLOVER
-0.9912 <s> CROSS CONCENTRIC
-1.9912 <s> CROSS COUNTER
-1.6902 <s> CROSS CYCLE
-1.9912 <s> CROSS EXTEND
-1.5141 <s> CROSS FLIP
-1.2923 <s> CROSS INVERT
-1.9912 <s> CROSS KICK
-1.9912 <s> CROSS LOCKIT
-1.9912 <s> CROSS LOOP
-1.9912 <s> CROSS NUCLEAR
-1.9912 <s> CROSS OVER
-1.9912 <s> CROSS RAMBLE
-1.9912 <s> CROSS REACTIVATE
-1.6902 <s> CROSS ROLL
-1.9912 <s> CROSS SWAP
-1.9912 <s> CROSS THE
-1.9912 <s> CROSS TRADE
-1.6902 <s> CROSS TRAIL
-1.9912 <s> CROSS YOUR
-0.3010 <s> CROSSFIRE </s>
-0.3010 <s> CUT THE
-0.3010 <s> CYCLE AND
-0.3010 <s> DELETE ALL
-0.6021 <s> DELIGHT </s>
-0.6021 <s> DELIGHT DILEMMA
-0.3010 <s> DESIGNATED DANCERS
-0.3010 <s> DETOUR </s>
-0.3010 <s> DIAGONAL BOX
-0.6021 <s> DIAMOND CHAIN
-0.6021 <s> DIAMOND CIRCULATE
-0.3010 <s> DILEMMA </s>
-0.3010 <s> DISBAND </s>
-0.6021 <s> DISCONNECTED COLUMNS
-0.6021 <s> DISCONNECTED CONCEPT
-0.3010 <s> DIVE THRU
-0.3010 <s> DIVIDE THE
-0.7782 <s> DIXIE DIAMOND
-1.0792 <s> DIXIE GRAND
-1.0792 <s> DIXIE SASHAY
-0.7782 <s> DIXIE STYLE
-0.3010 <s> DO PASO
-1.0000 <s> DODGE ANYTHING
-1.0000 <s> DODGE CIRCULATE
-1.0000 <s> DODGE HOCUS
-1.0000 <s> DODGE LOAD
-1.0000 <s> DODGE TRADE
-0.3010 <s> DOSADO </s>
-0.6021 <s> DOUBLE PASS
-0.6021 <s> DOUBLE STAR
-0.3010 <s> DRIFT APART
-0.7782 <s> DROP IN
-1.0792 <s> DROP LEFT
-1.0792 <s> DROP OUT
-0.7782 <s> DROP RIGHT
-0.3010 <s> EACH WAVE
-0.3010 <s> EASE OFF
-1.1461 <s> ECHO ANY
-1.1461 <s> ECHO AS
-1.1461 <s> ECHO CONCENTRIC
-1.1461 <s> ECHO SIX
-1.1461 <s> ECHO SPLIT
-1.1461 <s> ECHO STRETCH
-1.1461 <s> ECHO TANDEM
-0.3802 <s> EIGHT BY
-1.0792 <s> EIGHT CHAIN
-0.3010 <s> END GIRLS
-1.6021 <s> ENDS BEND
-1.6021 <s> ENDS CIRCULATE
-1.0000 <s> ENDS CROSS
-1.1249 <s> ENDS DISCONNECTED
-1.3010 <s> ENDS FOLD
-1.6021 <s> ENDS PEEL
-1.6021 <s> ENDS PRESS
-1.6021 <s> ENDS RIPPLE
-1.6021 <s> ENDS RUN
-1.6021 <s> ENDS SQUEEZE
-1.3010 <s> ENDS START
-1.6021 <s> ENDS TRADE
-1.6021 <s> ENDS ZOOM
-0.3010 <s> EVERYBODY HOP
-0.3010 <s> EXCHANGE THE
-0.3010 <s> EXPAND THE
-0.4929 <s> EXPLODE AND
-0.7482 <s> EXPLODE THE
-0.3010 <s> EXTEND </s>
-0.3010 <s> FACING COUPLES
-1.1139 <s> FAN ALTER
-0.8129 <s> FAN CHAIN
-1.4150 <s> FAN CONCEPT
-1.4150 <s> FAN ONE
-0.9379 <s> FAN RELAY
-1.1139 <s> FAN THE
-0.3010 <s> FANCY </s>
-0.3010 <s> FASCINATE </s>
-0.7782 <s> FASCINATING </s>
-0.7782 <s> FASCINATING RECYCLE
-0.7782 <s> FASCINATING TURN
-0.3010 <s> FERRIS WHEEL
-0.3010 <s> FILE TO
-0.5441 <s> FINALLY AS
-1.1461 <s> FINALLY CONCEPT
-1.1461 <s> FINALLY STINGY
-1.1461 <s> FINALLY TANDEM
-1.2041 <s> FINISH </s>
-0.3590 <s> FINISH A
-0.3010 <s> FIRST COUPLE
-0.3010 <s> FLARE OUT
-1.4150 <s> FLIP AND
-1.1139 <s> FLIP BACK
-1.4150 <s> FLIP REACTION
-0.5699 <s> FLIP THE
-1.1139 <s> FLIP YOUR
-0.9031 <s> FLUTTERWHEEL </s>
-0.6021 <s> FLUTTERWHEEL AND
-0.9031 <s> FLUTTERWHEEL FAMILY
-0.3010 <s> FOLD FAMILY
-1.1461 <s> FOLLOW THRU
-1.1461 <s> FOLLOW TO
-0.4472 <s> FOLLOW YOUR
-0.3010 <s> FORWARD AND
-1.0000 <s> FOUR BOYS
-1.0000 <s> FOUR GIRLS
-0.6990 <s> FOUR LADIES
-1.0000 <s> FOUR STEPS
-0.3010 <s> FOURTHLY TANDEM
-0.3010 <s> FRACTION CAST
-0.3010 <s> FRACTIONAL TOPS
-1.0792 <s> FUNNY CONCEPT
-1.0792 <s> FUNNY DIAMOND
-1.0792 <s> FUNNY SLIDE
-1.0792 <s> FUNNY SPLIT
-0.7782 <s> FUNNY SQUARE
-0.6021 <s> GALAXY CIRCULATE
-0.6021 <s> GALAXY FORMATION
-0.3010 <s> GEE WHIZ
-1.2041 <s> GENEROUS DIXIE
-1.2041 <s> GENEROUS LOCKIT
-1.2041 <s> GENEROUS MIX
-1.2041 <s> GENEROUS RESET
-1.2041 <s> GENEROUS SCOOT
-1.2041 <s> GENEROUS SETS
-1.2041 <s> GENEROUS SIX
-1.2041 <s> GENEROUS SPIN
-1.4771 <s> GIRLS BACKTRACK
-0.7782 <s> GIRLS DISCONNECTED
-1.4771 <s> GIRLS FACE
-1.4771 <s> GIRLS FOLD
-1.4771 <s> GIRLS ONLY
-1.4771 <s> GIRLS PRESS
-1.4771 <s> GIRLS RUN
-1.4771 <s> GIRLS START
-1.4771 <s> GIRLS TRADE
-1.4771 <s> GIRLS TURN
-1.4771 <s> GIRLS WALK
-0.3010 <s> GOOD SHOW
-1.5051 <s> GRAND CHAIN
-1.2041 <s> GRAND CROSS
-1.0280 <s> GRAND FOLLOW
-1.5051 <s> GRAND LEFT
-1.5051 <s> GRAND MIX
-1.5051 <s> GRAND QUARTER
-1.5051 <s> GRAND REMAKE
-1.2041 <s> GRAND SINGLE
-1.5051 <s> GRAND SPIN
-1.5051 <s> GRAND SQUARE
-1.5051 <s> GRAND SWING
-1.5051 <s> GRAND THREE
-0.3010 <s> GROUPS OF
-0.6990 <s> HALF SASHAY
-0.6990 <s> HALF TAG
-1.0000 <s> HALF THE
-0.3680 <s> HEAD COUPLES
-1.1461 <s> HEAD LADIES
-1.8692 <s> HEADS FACE
-1.8692 <s> HEADS FAN
-1.3921 <s> HEADS LEAD
-1.1703 <s> HEADS LEFT
-1.0911 <s> HEADS PASS
-1.8692 <s> HEADS PROMENADE
-1.3921 <s> HEADS REVERSE
-1.8692 <s> HEADS ROTATE
-1.5682 <s> HEADS SINGLE
-1.5682 <s> HEADS SPIN
-1.5682 <s> HEADS SPLIT
-1.3921 <s> HEADS SQUARE
-1.3921 <s> HEADS STAR
-1.8692 <s> HEADS START
-1.3921 <s> HEADS WHEEL
-0.3010 <s> HERE COMES
-1.0000 <s> HINGE </s>
-0.6990 <s> HINGE AND
-1.0000 <s> HINGE FAMILY
-1.0000 <s> HINGE THE
-0.3010 <s> HOCUS POCUS
-0.3010 <s> HORSESHOE TURN
-0.3010 <s> HOURGLASS CIRCULATE
-0.3010 <s> HUBS TRADE
-1.0000 <s> IGNORE </s>
-0.3979 <s> IGNORE THE
-1.4472 <s> IN ROLL
-0.3332 <s> IN YOUR
-1.0000 <s> INITIALLY ANY
-0.3979 <s> INITIALLY AS
-0.3010 <s> INLET </s>
-0.6021 <s> INPOINT INTERLOCKED
-0.6021 <s> INPOINT TRIANGLE
-0.7782 <s> INSIDE INTERLOCKED
-0.4771 <s> INSIDE TRIANGLE
-1.3424 <s> INTERLOCKED COUNTER
-1.0414 <s> INTERLOCKED DIAMOND
-1.3424 <s> INTERLOCKED LITTLE
-1.3424 <s> INTERLOCKED PLENTY
-1.3424 <s> INTERLOCKED RALLY
-1.3424 <s> INTERLOCKED RAMBLE
-0.8653 <s> INTERLOCKED SCOOT
-1.3424 <s> INTERLOCKED TRIANGLE
-0.3010 <s> INTERRUPT </s>
-0.7782 <s> INVERT AND
-0.4771 <s> INVERT THE
-1.0792 <s> JAY CONCEPT
-1.0792 <s> JAY LEFT
-1.0792 <s> JAY PASS
-1.0792 <s> JAY SQUARE
-1.0792 <s> JAY SWAP
-1.0792 <s> JAY TOUCH
-0.3010 <s> JAYWALK </s>
-0.3010 <s> KEEP BUSY
-0.3010 <s> KICK OFF
-0.6021 <s> LADIES CHAIN
-0.9031 <s> LADIES IN
-0.9031 <s> LADIES START
-0.3010 <s> LATCH ON
-0.3010 <s> LATERAL SUBSTITUTE
-0.6021 <s> LEAD LEFT
-0.6021 <s> LEAD RIGHT
-1.6721 <s> LEFT </s>
-1.9731 <s> LEFT ALTER
-1.9731 <s> LEFT ARM
-1.9731 <s> LEFT CHASE
-1.9731 <s> LEFT DOSADO
-1.9731 <s> LEFT DOUBLE
-1.9731 <s> LEFT FAN
-1.9731 <s> LEFT GEE
-1.6721 <s> LEFT GRAND
-1.6721 <s> LEFT HAND
-1.9731 <s> LEFT JAY
-1.9731 <s> LEFT LITTLE
-1.6721 <s> LEFT PASS
-1.9731 <s> LEFT PLENTY
-1.9731 <s> LEFT PULL
-1.9731 <s> LEFT QUARTER
-1.9731 <s> LEFT REMAKE
-1.9731 <s> LEFT ROLL
-1.9731 <s> LEFT SCOOT
-1.9731 <s> LEFT SHAKEDOWN
-1.9731 <s> LEFT SHOULDER
-1.9731 <s> LEFT SINGLE
-1.3711 <s> LEFT SPIN
-1.9731 <s> LEFT SPLIT
-1.3711 <s> LEFT SQUARE
-1.4960 <s> LEFT SWING
-1.6721 <s> LEFT THREE
-1.9731 <s> LEFT TOUCH
-1.9731 <s> LEFT TRACK
-1.6721 <s> LEFT TURN
-1.4960 <s> LEFT WHEEL
-0.3010 <s> LICKETY SPLIT
-0.3010 <s> LIFT OFF
-0.4771 <s> LINE OF
-0.7782 <s> LINE TO
-0.7782 <s> LINEAR ACTION
-0.4771 <s> LINEAR CYCLE
-0.7782 <s> LINES ANYTHING
-0.7782 <s> LINES OF
-0.7782 <s> LINES PASS
-0.3010 <s> LINK UP
-0.9031 <s> LITTLE </s>
-0.9031 <s> LITTLE MORE
-0.9031 <s> LITTLE OUTSIDES
-0.9031 <s> LITTLE POINTS
-0.3010 <s> LOAD THE
-0.6021 <s> LOCK EM
-0.6021 <s> LOCK THE
-0.3010 <s> LOCKERS CHOICE
-0.3010 <s> LOCKIT </s>
-0.3010 <s> LOOP AND
-0.6021 <s> MAGIC COLUMN
-1.6435 <s> MAGIC DIAMOND
-1.6435 <s> MAGIC EXPAND
-1.1663 <s> MAGIC LINE
-1.3424 <s> MAGIC O
-1.0414 <s> MAGIC WAVE
-0.3010 <s> MAKE MAGIC
-0.3010 <s> MEN START
-0.6021 <s> MINI BUSY
-0.6021 <s> MINI CHASE
-1.4771 <s> MIRROR ALL
-1.4771 <s> MIRROR BRACE
-1.4771 <s> MIRROR CONCEPT
-1.4771 <s> MIRROR CROSS
-1.4771 <s> MIRROR LIFT
-1.1761 <s> MIRROR PASS
-1.4771 <s> MIRROR RECYCLE
-1.4771 <s> MIRROR RIGHT
-1.4771 <s> MIRROR RIP
-1.4771 <s> MIRROR SINGLE
-1.4771 <s> MIRROR SLIDE
-1.4771 <s> MIRROR SWAP
-1.4771 <s> MIRROR TRIPLE
-1.4771 <s> MIRROR WHEEL
-0.6021 <s> MIX </s>
-0.6021 <s> MIX THE
-0.9031 <s> MOTIVATE </s>
-0.9031 <s> MOTIVATE DO
-0.9031 <s> MOTIVATE REPLACE
-0.9031 <s> MOTIVATE TURN
-0.3010 <s> N STEPS
-0.3010 <s> NAMED DANCERS
-0.3010 <s> NOBODY HOP
-0.3010 <s> NUCLEAR REACTION
-1.7924 <s> O CHASE
-1.7924 <s> O CIRCULATE
-1.7924 <s> O CLOVERLEAF
-1.7924 <s> O COORDINATE
-1.7924 <s> O CROSS
-1.7924 <s> O DOUBLE
-1.7924 <s> O FORMATION
-1.7924 <s> O LEFT
-1.4914 <s> O PASS
-1.7924 <s> O PEEL
-1.7924 <s> O REVERSE
-1.7924 <s> O RIGHT
-1.7924 <s> O SCOOT
-1.7924 <s> O SHAKEDOWN
-1.7924 <s> O SLIDE
-1.7924 <s> O SPLIT
-1.7924 <s> O SQUARE
-1.7924 <s> O SWAP
-1.7924 <s> O SWING
-1.7924 <s> O TOUCH
-1.7924 <s> O TRACK
-1.7924 <s> O TRADE
-1.7924 <s> O TRANSFER
-1.7924 <s> O TURN
-1.7924 <s> O VEER
-1.7924 <s> O WALK
-1.4914 <s> O WHEEL
-1.7924 <s> O ZING
-1.7924 <s> O ZOOM
-0.3010 <s> OCEAN WAVE
-0.9031 <s> ODDLY EVENLY
-0.9031 <s> ODDLY ONCE
-0.6021 <s> ODDLY TANDEM
-0.4260 <s> OFFSET LINES
-0.9031 <s> OFFSET WAVES
-0.3010 <s> ONCE REMOVED
-0.6021 <s> ONE HALF
-0.6812 <s> ONE QUARTER
-1.3802 <s> ONE STEP
-0.3010 <s> OPEN UP
-0.3010 <s> OUT ROLL
-0.3010 <s> OUTFACING POINTS
-0.3010 <s> OUTLET </s>
-0.6021 <s> OUTPOINT INTERLOCKED
-0.6021 <s> OUTPOINT TRIANGLE
-1.2041 <s> OUTSIDE COUPLES
-1.2041 <s> OUTSIDE INTERLOCKED
-0.5051 <s> OUTSIDE TRIANGLE
-1.2041 <s> OUTSIDE TRIANGLES
-0.3010 <s> OWN THE
-0.3010 <s> PAIR OFF
-1.3424 <s> PARALLELOGRAM ACEY
-1.3424 <s> PARALLELOGRAM BEND
-1.3424 <s> PARALLELOGRAM CAST
-1.3424 <s> PARALLELOGRAM CONCEPT
-1.3424 <s> PARALLELOGRAM IN
-1.3424 <s> PARALLELOGRAM PASS
-1.3424 <s> PARALLELOGRAM RECYCLE
-1.3424 <s> PARALLELOGRAM SCOOT
-1.3424 <s> PARALLELOGRAM SLIDE
-1.3424 <s> PARALLELOGRAM SPLIT
-1.3424 <s> PARALLELOGRAM WALK
-0.9031 <s> PARTNER HINGE
-0.9031 <s> PARTNER TAG
-0.6021 <s> PARTNER TRADE
-1.1139 <s> PASS AND
-1.4150 <s> PASS IN
-1.4150 <s> PASS OUT
-0.7160 <s> PASS THE
-1.4150 <s> PASS THRU
-0.9379 <s> PASS TO
-0.3010 <s> PASSING RULE
-0.9031 <s> PATCH ANYONE
-0.4260 <s> PATCH THE
-1.0792 <s> PEEL AND
-1.0792 <s> PEEL CHAIN
-0.7782 <s> PEEL OFF
-1.0792 <s> PEEL THE
-1.0792 <s> PEEL TO
-1.0000 <s> PERCOLATE </s>
-0.5229 <s> PERCOLATE BUT
-1.0000 <s> PERCOLATE OUTSIDES
-0.3010 <s> PERK UP
-1.6021 <s> PHANTOM ACEY
-1.6021 <s> PHANTOM ALL
-1.6021 <s> PHANTOM ALTER
-1.6021 <s> PHANTOM BEND
-1.1249 <s> PHANTOM COLUMNS
-1.6021 <s> PHANTOM COUPLES
-1.6021 <s> PHANTOM FERRIS
-1.6021 <s> PHANTOM FORMATION
-1.3010 <s> PHANTOM LINES
-1.6021 <s> PHANTOM LOAD
-1.6021 <s> PHANTOM MOTIVATE
-1.6021 <s> PHANTOM PASS
-1.6021 <s> PHANTOM TALLY
-1.6021 <s> PHANTOM TRADE
-1.3010 <s> PHANTOM WAVES
-1.6021 <s> PHANTOM WHEEL
-0.3010 <s> PING PONG
-0.7782 <s> PITCH DIRECTION
-0.7782 <s> PITCH LEFT
-0.7782 <s> PITCH RIGHT
-0.3010 <s> PLAN AHEAD
-0.6021 <s> PLENTY </s>
-0.6021 <s> PLENTY POINTS
-0.9031 <s> POINTS COUNTER
-0.9031 <s> POINTS PEEL
-0.9031 <s> POINTS ZING
-0.9031 <s> POINTS ZOOM
-0.3010 <s> POLLY WALLY
-0.9031 <s> PREFER </s>
-0.4260 <s> PREFER THE
-0.6021 <s> PRESS AHEAD
-0.6021 <s> PRESS IN
-0.3010 <s> PROMENADE FAMILY
-0.3010 <s> PULL BY
-1.0792 <s> QUADRUPLE BOX
-1.0792 <s> QUADRUPLE COLUMN
